{"learner":{"attributes":{},"feature_names":["CSM_C_MeanT","CLM_C_MeanT","BLD_B_SDevT","ILD_I_SDevT","CSD_C_SDevT"],"feature_types":["float","float","float","float","float"],"gradient_booster":{"model":{"cats":{"enc":[],"feature_segments":[],"sorted_idx":[]},"gbtree_model_param":{"num_parallel_tree":"1","num_trees":"100"},"iteration_indptr":[0,1,2,3,4,5,6,7,8,9,10,11,12,13,14,15,16,17,18,19,20,21,22,23,24,25,26,27,28,29,30,31,32,33,34,35,36,37,38,39,40,41,42,43,44,45,46,47,48,49,50,51,52,53,54,55,56,57,58,59,60,61,62,63,64,65,66,67,68,69,70,71,72,73,74,75,76,77,78,79,80,81,82,83,84,85,86,87,88,89,90,91,92,93,94,95,96,97,98,99,100],"tree_info":[0,0,0,0,0,0,0,0,0,0,0,0,0,0,0,0,0,0,0,0,0,0,0,0,0,0,0,0,0,0,0,0,0,0,0,0,0,0,0,0,0,0,0,0,0,0,0,0,0,0,0,0,0,0,0,0,0,0,0,0,0,0,0,0,0,0,0,0,0,0,0,0,0,0,0,0,0,0,0,0,0,0,0,0,0,0,0,0,0,0,0,0,0,0,0,0,0,0,0,0],"trees":[{"base_weights":[-7.1187736E-9,-3.1497335E-1,4.9031934E-1,-4.6095324E-1,6.2393643E-2,4.1606885E-1,4.6904314E-2,-1.5636487E-2,-3.70468E-2,7.921617E-4,2.0650407E-2,3.0208832E-2,6.504065E-3],"categories":[],"categories_nodes":[],"categories_segments":[],"categories_sizes":[],"default_left":[0,0,0,0,0,0,0,0,0,0,0,0,0],"id":0,"left_children":[1,3,5,7,9,11,-1,-1,-1,-1,-1,-1,-1],"loss_changes":[1.9150253E1,4.1735244E0,1.4173203E0,2.145897E0,3.4763515E-1,2.247054E0,0E0,0E0,0E0,0E0,0E0,0E0,0E0],"parents":[2147483647,0,0,1,1,2,2,3,3,4,4,5,5],"right_children":[2,4,6,8,10,12,-1,-1,-1,-1,-1,-1,-1],"split_conditions":[5.63E0,3.9E-1,7.2E-1,2.6E-1,7.8E-1,5.6E-1,4.6904314E-2,-1.5636487E-2,-3.70468E-2,7.921617E-4,2.0650407E-2,3.0208832E-2,6.504065E-3],"split_indices":[1,3,3,3,3,3,0,0,0,0,0,0,0],"split_type":[0,0,0,0,0,0,0,0,0,0,0,0,0],"sum_hessian":[1.23E2,7.5E1,4.8E1,5.4E1,2.1E1,4.2E1,6E0,3.6E1,1.8E1,1.9E1,2E0,2.5E1,1.7E1],"tree_param":{"num_deleted":"0","num_feature":"5","num_nodes":"13","size_leaf_vector":"1"}},{"base_weights":[2.12045E-4,-5.341133E-1,3.319813E-1,-6.3661283E-1,-9.060926E-2,5.370928E-2,5.013083E-1,-2.3926636E-2,-4.5581516E-2,7.2184E-4,-1.9381281E-2,2.1275865E-2,9.4660086E-4,8.1093574E-4,2.7909344E-2],"categories":[],"categories_nodes":[],"categories_segments":[],"categories_sizes":[],"default_left":[0,0,0,0,0,0,0,0,0,0,0,0,0,0,0],"id":1,"left_children":[1,3,5,7,9,11,13,-1,-1,-1,-1,-1,-1,-1,-1],"loss_changes":[2.1981838E1,2.1304579E0,3.5911388E0,1.455658E0,2.9920182E-1,3.7742072E-1,1.306056E0,0E0,0E0,0E0,0E0,0E0,0E0,0E0,0E0],"parents":[2147483647,0,0,1,1,2,2,3,3,4,4,5,5,6,6],"right_children":[2,4,6,8,10,12,14,-1,-1,-1,-1,-1,-1,-1,-1],"split_conditions":[5.2E0,3.9E-1,5.6E0,2.5E-1,3E-1,1.4E-1,2.9E-1,-2.3926636E-2,-4.5581516E-2,7.2184E-4,-1.9381281E-2,2.1275865E-2,9.4660086E-4,8.1093574E-4,2.7909344E-2],"split_indices":[0,3,0,3,2,3,3,0,0,0,0,0,0,0,0],"split_type":[0,0,0,0,0,0,0,0,0,0,0,0,0,0,0],"sum_hessian":[1.23E2,4.7E1,7.6E1,3.8E1,9E0,2.9E1,4.7E1,2.5E1,1.3E1,7E0,2E0,2E0,2.7E1,5E0,4.2E1],"tree_param":{"num_deleted":"0","num_feature":"5","num_nodes":"15","size_leaf_vector":"1"}},{"base_weights":[5.0735718E-5,-4.5154753E-1,2.4408178E-1,-5.7223016E-1,1.0486527E-2,-1.0362322E-2,3.587896E-1,-2.1715306E-2,-3.988021E-2,-5.844492E-3,1.9525915E-2,3.2723062E-3,-3.604446E-2,1.53652895E-2,3.6162976E-2],"categories":[],"categories_nodes":[],"categories_segments":[],"categories_sizes":[],"default_left":[0,0,0,0,0,0,0,0,0,0,0,0,0,0,0],"id":2,"left_children":[1,3,5,7,9,11,13,-1,-1,-1,-1,-1,-1,-1,-1],"loss_changes":[1.3665301E1,2.4285364E0,2.3513904E0,8.992138E-1,4.8269093E-1,1.3971201E0,9.302888E-1,0E0,0E0,0E0,0E0,0E0,0E0,0E0,0E0],"parents":[2147483647,0,0,1,1,2,2,3,3,4,4,5,5,6,6],"right_children":[2,4,6,8,10,12,14,-1,-1,-1,-1,-1,-1,-1,-1],"split_conditions":[4E-2,3.9E-1,3.8E-1,2.3E-1,3.5E-1,3.6E-1,7.8E-1,-2.1715306E-2,-3.988021E-2,-5.844492E-3,1.9525915E-2,3.2723062E-3,-3.604446E-2,1.53652895E-2,3.6162976E-2],"split_indices":[4,3,3,3,2,3,3,0,0,0,0,0,0,0,0],"split_type":[0,0,0,0,0,0,0,0,0,0,0,0,0,0,0],"sum_hessian":[1.23E2,4.3E1,8E1,3.4E1,9E0,2.5E1,5.5E1,2.2E1,1.2E1,7E0,2E0,2.3E1,2E0,4.9E1,6E0],"tree_param":{"num_deleted":"0","num_feature":"5","num_nodes":"15","size_leaf_vector":"1"}},{"base_weights":[-6.984605E-5,-2.7775925E-1,4.3221027E-1,-4.007821E-1,4.0548902E-2,3.6454263E-1,4.2070277E-2,-1.3464764E-2,-3.246851E-2,2.2375763E-5,1.7261498E-2,2.7151326E-2,4.702534E-3],"categories":[],"categories_nodes":[],"categories_segments":[],"categories_sizes":[],"default_left":[0,0,0,0,0,0,0,0,0,0,0,0,0],"id":3,"left_children":[1,3,5,7,9,11,-1,-1,-1,-1,-1,-1,-1],"loss_changes":[1.4884917E1,2.9646435E0,1.1895657E0,1.6939545E0,2.626126E-1,2.026298E0,0E0,0E0,0E0,0E0,0E0,0E0,0E0],"parents":[2147483647,0,0,1,1,2,2,3,3,4,4,5,5],"right_children":[2,4,6,8,10,12,-1,-1,-1,-1,-1,-1,-1],"split_conditions":[5.63E0,3.9E-1,7.2E-1,2.6E-1,7.8E-1,5.6E-1,4.2070277E-2,-1.3464764E-2,-3.246851E-2,2.2375763E-5,1.7261498E-2,2.7151326E-2,4.702534E-3],"split_indices":[1,3,3,3,3,3,0,0,0,0,0,0,0],"split_type":[0,0,0,0,0,0,0,0,0,0,0,0,0],"sum_hessian":[1.23E2,7.5E1,4.8E1,5.4E1,2.1E1,4.2E1,6E0,3.6E1,1.8E1,1.9E1,2E0,2.5E1,1.7E1],"tree_param":{"num_deleted":"0","num_feature":"5","num_nodes":"13","size_leaf_vector":"1"}},{"base_weights":[1.16949894E-4,-4.7163633E-1,2.9303488E-1,-3.8400434E-2,-4.277336E-1,4.4765357E-2,4.4413877E-1,-1.9100755E-2,-3.8567744E-2,1.6913233E-2,2.578334E-4,2.7201965E-2,1.5533835E-2],"categories":[],"categories_nodes":[],"categories_segments":[],"categories_sizes":[],"default_left":[0,0,0,0,0,0,0,0,0,0,0,0,0],"id":4,"left_children":[1,3,5,-1,7,9,11,-1,-1,-1,-1,-1,-1],"loss_changes":[1.713495E1,4.5379734E-1,2.8599176E0,0E0,5.203333E-1,3.42069E-1,5.488043E-1,0E0,0E0,0E0,0E0,0E0,0E0],"parents":[2147483647,0,0,1,1,2,2,4,4,5,5,6,6],"right_children":[2,4,6,-1,8,10,12,-1,-1,-1,-1,-1,-1],"split_conditions":[5.2E0,5.12E0,5.6E0,-3.8400434E-2,7E-2,5.25E0,3.1E-1,-1.9100755E-2,-3.8567744E-2,1.6913233E-2,2.578334E-4,2.7201965E-2,1.5533835E-2],"split_indices":[0,0,0,0,4,0,2,0,0,0,0,0,0],"split_type":[0,0,0,0,0,0,0,0,0,0,0,0,0],"sum_hessian":[1.23E2,4.7E1,7.6E1,5E0,4.2E1,2.9E1,4.7E1,3.8E1,4E0,3E0,2.6E1,2.6E1,2.1E1],"tree_param":{"num_deleted":"0","num_feature":"5","num_nodes":"13","size_leaf_vector":"1"}},{"base_weights":[-3.530923E-5,-4.4906577E-1,2.7877468E-1,-5.371759E-1,-6.8352915E-2,4.281813E-2,4.2238167E-1,-2.0079298E-2,-3.8669746E-2,1.7098229E-3,-1.8116523E-2,2.048911E-2,4.3396238E-4,3.9645893E-5,2.359855E-2],"categories":[],"categories_nodes":[],"categories_segments":[],"categories_sizes":[],"default_left":[0,0,0,0,0,0,0,0,0,0,0,0,0,0,0],"id":5,"left_children":[1,3,5,7,9,11,13,-1,-1,-1,-1,-1,-1,-1,-1],"loss_changes":[1.5524076E1,1.5750122E0,2.5831594E0,1.0778208E0,2.9259372E-1,3.677901E-1,9.9286366E-1,0E0,0E0,0E0,0E0,0E0,0E0,0E0,0E0],"parents":[2147483647,0,0,1,1,2,2,3,3,4,4,5,5,6,6],"right_children":[2,4,6,8,10,12,14,-1,-1,-1,-1,-1,-1,-1,-1],"split_conditions":[5.2E0,3.9E-1,5.6E0,2.5E-1,3E-1,1.4E-1,2.9E-1,-2.0079298E-2,-3.8669746E-2,1.7098229E-3,-1.8116523E-2,2.048911E-2,4.3396238E-4,3.9645893E-5,2.359855E-2],"split_indices":[0,3,0,3,2,3,3,0,0,0,0,0,0,0,0],"split_type":[0,0,0,0,0,0,0,0,0,0,0,0,0,0,0],"sum_hessian":[1.23E2,4.7E1,7.6E1,3.8E1,9E0,2.9E1,4.7E1,2.5E1,1.3E1,7E0,2E0,2E0,2.7E1,5E0,4.2E1],"tree_param":{"num_deleted":"0","num_feature":"5","num_nodes":"15","size_leaf_vector":"1"}},{"base_weights":[-1.5740012E-4,-4.274036E-1,2.651272E-1,-3.5066247E-2,-3.8692668E-1,4.103185E-2,4.0151143E-1,-1.7225515E-2,-3.5341527E-2,1.588328E-2,1.8605641E-4,2.405984E-2,1.2557971E-2],"categories":[],"categories_nodes":[],"categories_segments":[],"categories_sizes":[],"default_left":[0,0,0,0,0,0,0,0,0,0,0,0,0],"id":6,"left_children":[1,3,5,-1,7,9,11,-1,-1,-1,-1,-1,-1],"loss_changes":[1.4054376E1,3.9097595E-1,2.3298373E0,0E0,4.5493412E-1,3.038904E-1,5.0866175E-1,0E0,0E0,0E0,0E0,0E0,0E0],"parents":[2147483647,0,0,1,1,2,2,4,4,5,5,6,6],"right_children":[2,4,6,-1,8,10,12,-1,-1,-1,-1,-1,-1],"split_conditions":[5.2E0,5.12E0,5.6E0,-3.5066247E-2,7E-2,5.25E0,1.8E-1,-1.7225515E-2,-3.5341527E-2,1.588328E-2,1.8605641E-4,2.405984E-2,1.2557971E-2],"split_indices":[0,0,0,0,4,0,4,0,0,0,0,0,0],"split_type":[0,0,0,0,0,0,0,0,0,0,0,0,0],"sum_hessian":[1.23E2,4.7E1,7.6E1,5E0,4.2E1,2.9E1,4.7E1,3.8E1,4E0,3E0,2.6E1,3E1,1.7E1],"tree_param":{"num_deleted":"0","num_feature":"5","num_nodes":"13","size_leaf_vector":"1"}},{"base_weights":[-2.9101226E-4,-3.6028585E-1,1.9424216E-1,-4.6333504E-1,3.2907832E-2,3.93959E-3,2.9569936E-1,-1.715525E-2,-3.3060785E-2,-3.8251828E-3,1.7728036E-2,-4.9662977E-3,9.284803E-3,3.781193E-2,1.3007456E-2],"categories":[],"categories_nodes":[],"categories_segments":[],"categories_sizes":[],"default_left":[0,0,0,0,0,0,0,0,0,0,0,0,0,0,0],"id":7,"left_children":[1,3,5,7,9,11,13,-1,-1,-1,-1,-1,-1,-1,-1],"loss_changes":[8.683813E0,1.7701688E0,1.5536766E0,7.073631E-1,3.478916E-1,5.4414386E-1,7.6117754E-1,0E0,0E0,0E0,0E0,0E0,0E0,0E0,0E0],"parents":[2147483647,0,0,1,1,2,2,3,3,4,4,5,5,6,6],"right_children":[2,4,6,8,10,12,14,-1,-1,-1,-1,-1,-1,-1,-1],"split_conditions":[4E-2,3.9E-1,2.1E-1,2.3E-1,3.5E-1,3.8E-1,2.3E-1,-1.715525E-2,-3.3060785E-2,-3.8251828E-3,1.7728036E-2,-4.9662977E-3,9.284803E-3,3.781193E-2,1.3007456E-2],"split_indices":[4,3,2,3,2,3,2,0,0,0,0,0,0,0,0],"split_type":[0,0,0,0,0,0,0,0,0,0,0,0,0,0,0],"sum_hessian":[1.23E2,4.3E1,8E1,3.4E1,9E0,2.8E1,5.2E1,2.2E1,1.2E1,7E0,2E0,1.8E1,1E1,3E0,4.9E1],"tree_param":{"num_deleted":"0","num_feature":"5","num_nodes":"15","size_leaf_vector":"1"}},{"base_weights":[-2.0024714E-4,-3.9129308E-1,2.4263647E-1,-3.211416E-2,-3.5420856E-1,3.344092E-2,3.7000385E-1,-1.5458538E-2,-2.310863E-2,1.54154105E-2,-1.7466322E-4,4.725874E-3,2.258662E-2],"categories":[],"categories_nodes":[],"categories_segments":[],"categories_sizes":[],"default_left":[0,0,0,0,0,0,0,0,0,0,0,0,0],"id":8,"left_children":[1,3,5,-1,7,9,11,-1,-1,-1,-1,-1,-1],"loss_changes":[1.1776477E1,3.2837152E-1,2.0321317E0,0E0,1.3520956E-1,3.0002248E-1,1.0481195E0,0E0,0E0,0E0,0E0,0E0,0E0],"parents":[2147483647,0,0,1,1,2,2,4,4,5,5,6,6],"right_children":[2,4,6,-1,8,10,12,-1,-1,-1,-1,-1,-1],"split_conditions":[5.2E0,5.12E0,5.6E0,-3.211416E-2,5.19E0,5.25E0,5.63E0,-1.5458538E-2,-2.310863E-2,1.54154105E-2,-1.7466322E-4,4.725874E-3,2.258662E-2],"split_indices":[0,0,0,0,1,0,1,0,0,0,0,0,0],"split_type":[0,0,0,0,0,0,0,0,0,0,0,0,0],"sum_hessian":[1.23E2,4.7E1,7.6E1,5E0,4.2E1,2.9E1,4.7E1,3.1E1,1.1E1,3E0,2.6E1,1.1E1,3.6E1],"tree_param":{"num_deleted":"0","num_feature":"5","num_nodes":"13","size_leaf_vector":"1"}},{"base_weights":[-3.0411684E-4,-3.7247244E-1,2.3078278E-1,-3.0654429E-2,-3.3695185E-1,3.2027192E-2,3.5179117E-1,-1.5813505E-2,-3.0230312E-2,1.4862302E-2,-1.8029986E-4,4.4998536E-3,2.147276E-2],"categories":[],"categories_nodes":[],"categories_segments":[],"categories_sizes":[],"default_left":[0,0,0,0,0,0,0,0,0,0,0,0,0],"id":9,"left_children":[1,3,5,-1,7,9,11,-1,-1,-1,-1,-1,-1],"loss_changes":[1.0664378E1,3.0268335E-1,1.8342748E0,0E0,1.3965225E-1,2.793284E-1,9.464445E-1,0E0,0E0,0E0,0E0,0E0,0E0],"parents":[2147483647,0,0,1,1,2,2,4,4,5,5,6,6],"right_children":[2,4,6,-1,8,10,12,-1,-1,-1,-1,-1,-1],"split_conditions":[5.2E0,5.12E0,5.6E0,-3.0654429E-2,5.18E0,5.26E0,5.63E0,-1.5813505E-2,-3.0230312E-2,1.4862302E-2,-1.8029986E-4,4.4998536E-3,2.147276E-2],"split_indices":[0,0,0,0,0,1,1,0,0,0,0,0,0],"split_type":[0,0,0,0,0,0,0,0,0,0,0,0,0],"sum_hessian":[1.23E2,4.7E1,7.6E1,5E0,4.2E1,2.9E1,4.7E1,4E1,2E0,3E0,2.6E1,1.1E1,3.6E1],"tree_param":{"num_deleted":"0","num_feature":"5","num_nodes":"13","size_leaf_vector":"1"}},{"base_weights":[-4.3483794E-4,-3.1021267E-1,1.6696334E-1,-4.068091E-1,5.6911778E-2,-4.68296E-3,2.5855264E-1,-1.4700703E-2,-2.967839E-2,-2.034311E-3,1.691617E-2,4.043915E-3,-9.003112E-3,3.4937654E-2,1.1240786E-2],"categories":[],"categories_nodes":[],"categories_segments":[],"categories_sizes":[],"default_left":[0,0,0,0,0,0,0,0,0,0,0,0,0,0,0],"id":10,"left_children":[1,3,5,7,9,11,13,-1,-1,-1,-1,-1,-1,-1,-1],"loss_changes":[6.430144E0,1.5542126E0,1.2661428E0,6.394987E-1,2.6780206E-1,4.349432E-1,7.0113254E-1,0E0,0E0,0E0,0E0,0E0,0E0,0E0,0E0],"parents":[2147483647,0,0,1,1,2,2,3,3,4,4,5,5,6,6],"right_children":[2,4,6,8,10,12,14,-1,-1,-1,-1,-1,-1,-1,-1],"split_conditions":[4E-2,3.9E-1,2.1E-1,2.3E-1,3.5E-1,1.8E-1,2.3E-1,-1.4700703E-2,-2.967839E-2,-2.034311E-3,1.691617E-2,4.043915E-3,-9.003112E-3,3.4937654E-2,1.1240786E-2],"split_indices":[4,3,2,3,2,2,2,0,0,0,0,0,0,0,0],"split_type":[0,0,0,0,0,0,0,0,0,0,0,0,0,0,0],"sum_hessian":[1.23E2,4.3E1,8E1,3.4E1,9E0,2.8E1,5.2E1,2.2E1,1.2E1,7E0,2E0,1.9E1,9E0,3E0,4.9E1],"tree_param":{"num_deleted":"0","num_feature":"5","num_nodes":"15","size_leaf_vector":"1"}},{"base_weights":[-3.65633E-4,-3.418447E-1,2.1166624E-1,-3.0680445E-1,-3.2129224E-2,2.4935879E-2,3.2540756E-1,-1.6987402E-2,5.9114504E-3,1.4159377E-2,-4.82166E-4,2.0926561E-2,1.0152982E-2],"categories":[],"categories_nodes":[],"categories_segments":[],"categories_sizes":[],"default_left":[0,0,0,0,0,0,0,0,0,0,0,0,0],"id":11,"left_children":[1,3,5,7,-1,9,11,-1,-1,-1,-1,-1,-1],"loss_changes":[8.978128E0,4.0198088E-1,1.620723E0,6.291766E-1,0E0,2.6480442E-1,4.986968E-1,0E0,0E0,0E0,0E0,0E0,0E0],"parents":[2147483647,0,0,1,1,2,2,3,3,5,5,6,6],"right_children":[2,4,6,8,-1,10,12,-1,-1,-1,-1,-1,-1],"split_conditions":[5.2E0,7E-2,5.6E0,5.16E0,-3.2129224E-2,5.25E0,3.1E-1,-1.6987402E-2,5.9114504E-3,1.4159377E-2,-4.82166E-4,2.0926561E-2,1.0152982E-2],"split_indices":[0,4,0,0,0,0,2,0,0,0,0,0,0],"split_type":[0,0,0,0,0,0,0,0,0,0,0,0,0],"sum_hessian":[1.23E2,4.7E1,7.6E1,4.3E1,4E0,2.9E1,4.7E1,4E1,3E0,3E0,2.6E1,2.6E1,2.1E1],"tree_param":{"num_deleted":"0","num_feature":"5","num_nodes":"13","size_leaf_vector":"1"}},{"base_weights":[-3.4106744E-4,-1.9122359E-1,2.9680946E-1,-2.769857E-1,3.062045E-2,2.3646584E-1,3.3426628E-2,-8.367486E-3,-2.4290422E-2,8.198762E-3,-1.9706022E-3,1.9535014E-2,2.4840227E-4],"categories":[],"categories_nodes":[],"categories_segments":[],"categories_sizes":[],"default_left":[0,0,0,0,0,0,0,0,0,0,0,0,0],"id":12,"left_children":[1,3,5,7,9,11,-1,-1,-1,-1,-1,-1,-1],"loss_changes":[7.0334034E0,1.4406898E0,1.0088668E0,1.207099E0,2.0402345E-1,1.5164895E0,0E0,0E0,0E0,0E0,0E0,0E0,0E0],"parents":[2147483647,0,0,1,1,2,2,3,3,4,4,5,5],"right_children":[2,4,6,8,10,12,-1,-1,-1,-1,-1,-1,-1],"split_conditions":[5.63E0,3.9E-1,7.2E-1,2.6E-1,4.4E-1,5.6E-1,3.3426628E-2,-8.367486E-3,-2.4290422E-2,8.198762E-3,-1.9706022E-3,1.9535014E-2,2.4840227E-4],"split_indices":[1,3,3,3,3,3,0,0,0,0,0,0,0],"split_type":[0,0,0,0,0,0,0,0,0,0,0,0,0],"sum_hessian":[1.23E2,7.5E1,4.8E1,5.4E1,2.1E1,4.2E1,6E0,3.6E1,1.8E1,7E0,1.4E1,2.5E1,1.7E1],"tree_param":{"num_deleted":"0","num_feature":"5","num_nodes":"13","size_leaf_vector":"1"}},{"base_weights":[-2.1559699E-4,-1.8183745E-1,2.8251755E-1,-2.6343605E-1,2.9234266E-2,2.2487529E-1,3.1883862E-2,-7.954843E-3,-2.3108726E-2,7.816154E-3,-1.8754698E-3,1.8577417E-2,2.36337E-4],"categories":[],"categories_nodes":[],"categories_segments":[],"categories_sizes":[],"default_left":[0,0,0,0,0,0,0,0,0,0,0,0,0],"id":13,"left_children":[1,3,5,7,9,11,-1,-1,-1,-1,-1,-1,-1],"loss_changes":[6.3674755E0,1.304199E0,9.212036E-1,1.0933583E0,1.8530278E-1,1.3714404E0,0E0,0E0,0E0,0E0,0E0,0E0,0E0],"parents":[2147483647,0,0,1,1,2,2,3,3,4,4,5,5],"right_children":[2,4,6,8,10,12,-1,-1,-1,-1,-1,-1,-1],"split_conditions":[5.63E0,3.9E-1,7.2E-1,2.6E-1,4.4E-1,5.6E-1,3.1883862E-2,-7.954843E-3,-2.3108726E-2,7.816154E-3,-1.8754698E-3,1.8577417E-2,2.36337E-4],"split_indices":[1,3,3,3,3,3,0,0,0,0,0,0,0],"split_type":[0,0,0,0,0,0,0,0,0,0,0,0,0],"sum_hessian":[1.23E2,7.5E1,4.8E1,5.4E1,2.1E1,4.2E1,6E0,3.6E1,1.8E1,7E0,1.4E1,2.5E1,1.7E1],"tree_param":{"num_deleted":"0","num_feature":"5","num_nodes":"13","size_leaf_vector":"1"}},{"base_weights":[-1.0127788E-4,-2.6399314E-1,1.4249931E-1,-3.4830528E-1,5.6087382E-2,-5.027317E-3,2.2122805E-1,-1.2404412E-2,-2.5738189E-2,-2.6562759E-3,1.2544942E-2,4.400541E-3,-9.786787E-3,3.1215921E-2,9.524605E-3],"categories":[],"categories_nodes":[],"categories_segments":[],"categories_sizes":[],"default_left":[0,0,0,0,0,0,0,0,0,0,0,0,0,0,0],"id":14,"left_children":[1,3,5,7,9,11,13,-1,-1,-1,-1,-1,-1,-1,-1],"loss_changes":[4.6662545E0,1.1836882E0,9.355302E-1,5.116744E-1,2.0878585E-1,5.142933E-1,5.9097815E-1,0E0,0E0,0E0,0E0,0E0,0E0,0E0,0E0],"parents":[2147483647,0,0,1,1,2,2,3,3,4,4,5,5,6,6],"right_children":[2,4,6,8,10,12,14,-1,-1,-1,-1,-1,-1,-1,-1],"split_conditions":[4E-2,3.9E-1,2.1E-1,2.3E-1,4.6E-1,1.8E-1,2.3E-1,-1.2404412E-2,-2.5738189E-2,-2.6562759E-3,1.2544942E-2,4.400541E-3,-9.786787E-3,3.1215921E-2,9.524605E-3],"split_indices":[4,3,2,3,3,2,2,0,0,0,0,0,0,0,0],"split_type":[0,0,0,0,0,0,0,0,0,0,0,0,0,0,0],"sum_hessian":[1.23E2,4.3E1,8E1,3.4E1,9E0,2.8E1,5.2E1,2.2E1,1.2E1,6E0,3E0,1.9E1,9E0,3E0,4.9E1],"tree_param":{"num_deleted":"0","num_feature":"5","num_nodes":"15","size_leaf_vector":"1"}},{"base_weights":[-6.746936E-5,-1.6817258E-1,2.616226E-1,-2.4154381E-1,2.1725962E-2,2.0694745E-1,2.9949466E-2,-8.142501E-3,-2.3725415E-2,7.3317415E-3,-2.1815624E-3,1.7408794E-2,-2.3776553E-4],"categories":[],"categories_nodes":[],"categories_segments":[],"categories_sizes":[],"default_left":[0,0,0,0,0,0,0,0,0,0,0,0,0],"id":15,"left_children":[1,3,5,7,9,11,-1,-1,-1,-1,-1,-1,-1],"loss_changes":[5.4549417E0,1.0545723E0,8.326311E-1,9.605036E-1,1.7871834E-1,1.2715122E0,0E0,0E0,0E0,0E0,0E0,0E0,0E0],"parents":[2147483647,0,0,1,1,2,2,3,3,4,4,5,5],"right_children":[2,4,6,8,10,12,-1,-1,-1,-1,-1,-1,-1],"split_conditions":[5.63E0,3.9E-1,7.2E-1,2.9E-1,4.4E-1,5.6E-1,2.9949466E-2,-8.142501E-3,-2.3725415E-2,7.3317415E-3,-2.1815624E-3,1.7408794E-2,-2.3776553E-4],"split_indices":[1,3,3,3,3,3,0,0,0,0,0,0,0],"split_type":[0,0,0,0,0,0,0,0,0,0,0,0,0],"sum_hessian":[1.23E2,7.5E1,4.8E1,5.4E1,2.1E1,4.2E1,6E0,4.1E1,1.3E1,7E0,1.4E1,2.5E1,1.7E1],"tree_param":{"num_deleted":"0","num_feature":"5","num_nodes":"13","size_leaf_vector":"1"}},{"base_weights":[1.8505394E-5,-2.8443977E-1,1.766428E-1,-3.478108E-1,-1.2649829E-2,6.98781E-2,3.056045E-1,-1.24861775E-2,-2.6010243E-2,4.364462E-3,-6.669602E-3,2.1036642E-3,2.5317026E-2,1.8159183E-2,3.705365E-3],"categories":[],"categories_nodes":[],"categories_segments":[],"categories_sizes":[],"default_left":[0,0,0,0,0,0,0,0,0,0,0,0,0,0,0],"id":16,"left_children":[1,3,5,7,9,11,13,-1,-1,-1,-1,-1,-1,-1,-1],"loss_changes":[6.230039E0,8.1592155E-1,1.0426168E0,5.8606815E-1,1.2045705E-1,5.051179E-1,4.4640732E-1,0E0,0E0,0E0,0E0,0E0,0E0,0E0,0E0],"parents":[2147483647,0,0,1,1,2,2,3,3,4,4,5,5,6,6],"right_children":[2,4,6,8,10,12,14,-1,-1,-1,-1,-1,-1,-1,-1],"split_conditions":[5.2E0,3.9E-1,5.7E0,2.5E-1,1E-2,7E-1,1.9E-1,-1.24861775E-2,-2.6010243E-2,4.364462E-3,-6.669602E-3,2.1036642E-3,2.5317026E-2,1.8159183E-2,3.705365E-3],"split_indices":[0,3,0,3,4,3,4,0,0,0,0,0,0,0,0],"split_type":[0,0,0,0,0,0,0,0,0,0,0,0,0,0,0],"sum_hessian":[1.23E2,4.7E1,7.6E1,3.8E1,9E0,4.2E1,3.4E1,2.5E1,1.3E1,5E0,4E0,4E1,2E0,2.7E1,7E0],"tree_param":{"num_deleted":"0","num_feature":"5","num_nodes":"15","size_leaf_vector":"1"}},{"base_weights":[5.1930372E-5,-1.5317057E-1,2.3857303E-1,-2.5603434E-1,-2.7216038E-2,1.8777244E-1,2.7618945E-2,-1.5618205E-2,-9.483959E-4,1.923148E-2,-2.9238882E-3,1.600214E-2,-5.164631E-4],"categories":[],"categories_nodes":[],"categories_segments":[],"categories_sizes":[],"default_left":[0,0,0,0,0,0,0,0,0,0,0,0,0],"id":17,"left_children":[1,3,5,7,9,11,-1,-1,-1,-1,-1,-1,-1],"loss_changes":[4.5318007E0,9.7470593E-1,7.21303E-1,5.5122423E-1,4.5543376E-1,1.1152796E0,0E0,0E0,0E0,0E0,0E0,0E0,0E0],"parents":[2147483647,0,0,1,1,2,2,3,3,4,4,5,5],"right_children":[2,4,6,8,10,12,-1,-1,-1,-1,-1,-1,-1],"split_conditions":[5.63E0,4E-2,7.2E-1,3.9E-1,1.4E-1,5.6E-1,2.7618945E-2,-1.5618205E-2,-9.483959E-4,1.923148E-2,-2.9238882E-3,1.600214E-2,-5.164631E-4],"split_indices":[1,4,3,3,3,3,0,0,0,0,0,0,0],"split_type":[0,0,0,0,0,0,0,0,0,0,0,0,0],"sum_hessian":[1.23E2,7.5E1,4.8E1,4.1E1,3.4E1,4.2E1,6E0,3.3E1,8E0,2E0,3.2E1,2.5E1,1.7E1],"tree_param":{"num_deleted":"0","num_feature":"5","num_nodes":"13","size_leaf_vector":"1"}},{"base_weights":[2.2279938E-4,-1.4551376E-1,2.2708876E-1,-2.4343222E-1,-2.5618894E-2,3.9078858E-1,1.5499625E-1,-1.0367322E-2,-1.700488E-2,1.1369029E-2,-3.6177037E-3,1.314029E-2,2.4635939E-2,-9.630485E-3,1.15777785E-2],"categories":[],"categories_nodes":[],"categories_segments":[],"categories_sizes":[],"default_left":[0,0,0,0,0,0,0,0,0,0,0,0,0,0,0],"id":18,"left_children":[1,3,5,7,9,11,13,-1,-1,-1,-1,-1,-1,-1,-1],"loss_changes":[4.0997615E0,8.832456E-1,5.42089E-1,1.0950327E-1,4.161531E-1,1.244123E-1,9.4043034E-1,0E0,0E0,0E0,0E0,0E0,0E0,0E0,0E0],"parents":[2147483647,0,0,1,1,2,2,3,3,4,4,5,5,6,6],"right_children":[2,4,6,8,10,12,14,-1,-1,-1,-1,-1,-1,-1,-1],"split_conditions":[5.63E0,4E-2,5.7E0,5.19E0,6E-2,5.67E0,2.1E-1,-1.0367322E-2,-1.700488E-2,1.1369029E-2,-3.6177037E-3,1.314029E-2,2.4635939E-2,-9.630485E-3,1.15777785E-2],"split_indices":[1,4,1,1,4,1,2,0,0,0,0,0,0,0,0],"split_type":[0,0,0,0,0,0,0,0,0,0,0,0,0,0,0],"sum_hessian":[1.23E2,7.5E1,4.8E1,4.1E1,3.4E1,1.4E1,3.4E1,3.1E1,1E1,5E0,2.9E1,7E0,7E0,6E0,2.8E1],"tree_param":{"num_deleted":"0","num_feature":"5","num_nodes":"15","size_leaf_vector":"1"}},{"base_weights":[2.9304292E-4,-2.4878016E-1,1.5494443E-1,-2.1576414E-1,-2.7014643E-2,6.2407397E-2,2.7926522E-1,-1.2211072E-2,7.2175376E-3,1.8004132E-3,2.4935558E-2,2.0470252E-2,5.179747E-3],"categories":[],"categories_nodes":[],"categories_segments":[],"categories_sizes":[],"default_left":[0,0,0,0,0,0,0,0,0,0,0,0,0],"id":19,"left_children":[1,3,5,7,-1,9,11,-1,-1,-1,-1,-1,-1],"loss_changes":[4.776434E0,3.9888024E-1,8.7136304E-1,4.6341014E-1,0E0,5.03574E-1,7.217989E-1,0E0,0E0,0E0,0E0,0E0,0E0],"parents":[2147483647,0,0,1,1,2,2,3,3,5,5,6,6],"right_children":[2,4,6,8,-1,10,12,-1,-1,-1,-1,-1,-1],"split_conditions":[5.2E0,7E-2,5.72E0,5.16E0,-2.7014643E-2,3.5E-1,3.1E-1,-1.2211072E-2,7.2175376E-3,1.8004132E-3,2.4935558E-2,2.0470252E-2,5.179747E-3],"split_indices":[0,4,0,0,0,2,2,0,0,0,0,0,0],"split_type":[0,0,0,0,0,0,0,0,0,0,0,0,0],"sum_hessian":[1.23E2,4.7E1,7.6E1,4.3E1,4E0,4.4E1,3.2E1,4E1,3E0,4.2E1,2E0,1.8E1,1.4E1],"tree_param":{"num_deleted":"0","num_feature":"5","num_nodes":"13","size_leaf_vector":"1"}},{"base_weights":[3.6089434E-4,-2.3667808E-1,1.475396E-1,-2.0503332E-1,-2.5813995E-2,5.958743E-2,2.656966E-1,-1.1608056E-2,6.908215E-3,1.5105403E-2,1.9207982E-3,1.6127607E-2,2.7337328E-3],"categories":[],"categories_nodes":[],"categories_segments":[],"categories_sizes":[],"default_left":[0,0,0,0,0,0,0,0,0,0,0,0,0],"id":20,"left_children":[1,3,5,7,-1,9,11,-1,-1,-1,-1,-1,-1],"loss_changes":[4.326015E0,3.673494E-1,7.8708446E-1,4.2103136E-1,0E0,2.2268313E-1,3.8110948E-1,0E0,0E0,0E0,0E0,0E0,0E0],"parents":[2147483647,0,0,1,1,2,2,3,3,5,5,6,6],"right_children":[2,4,6,8,-1,10,12,-1,-1,-1,-1,-1,-1],"split_conditions":[5.2E0,7E-2,5.72E0,5.16E0,-2.5813995E-2,5.25E0,1.9E-1,-1.1608056E-2,6.908215E-3,1.5105403E-2,1.9207982E-3,1.6127607E-2,2.7337328E-3],"split_indices":[0,4,0,0,0,0,4,0,0,0,0,0,0],"split_type":[0,0,0,0,0,0,0,0,0,0,0,0,0],"sum_hessian":[1.23E2,4.7E1,7.6E1,4.3E1,4E0,4.4E1,3.2E1,4E1,3E0,3E0,4.1E1,2.5E1,7E0],"tree_param":{"num_deleted":"0","num_feature":"5","num_nodes":"13","size_leaf_vector":"1"}},{"base_weights":[3.6461122E-4,-1.902081E-1,1.0334263E-1,-2.5938347E-1,7.101862E-2,7.5202376E-2,4.1792384E-1,-8.424136E-3,-2.0631474E-2,-1.1185427E-3,1.1715535E-2,-8.7622966E-4,6.5613203E-3,2.6765779E-2,6.151698E-3],"categories":[],"categories_nodes":[],"categories_segments":[],"categories_sizes":[],"default_left":[0,0,0,0,0,0,0,0,0,0,0,0,0,0,0],"id":21,"left_children":[1,3,5,7,9,11,13,-1,-1,-1,-1,-1,-1,-1,-1],"loss_changes":[2.4334912E0,7.952751E-1,6.9690335E-1,4.4583035E-1,1.4749359E-1,3.881727E-1,1.920836E-1,0E0,0E0,0E0,0E0,0E0,0E0,0E0,0E0],"parents":[2147483647,0,0,1,1,2,2,3,3,4,4,5,5,6,6],"right_children":[2,4,6,8,10,12,14,-1,-1,-1,-1,-1,-1,-1,-1],"split_conditions":[4E-2,3.9E-1,7.8E-1,2.3E-1,4.6E-1,2.1E-1,4.3E-1,-8.424136E-3,-2.0631474E-2,-1.1185427E-3,1.1715535E-2,-8.7622966E-4,6.5613203E-3,2.6765779E-2,6.151698E-3],"split_indices":[4,3,3,3,3,2,2,0,0,0,0,0,0,0,0],"split_type":[0,0,0,0,0,0,0,0,0,0,0,0,0,0,0],"sum_hessian":[1.23E2,4.3E1,8E1,3.4E1,9E0,7.4E1,6E0,2.2E1,1.2E1,6E0,3E0,2.8E1,4.6E1,4E0,2E0],"tree_param":{"num_deleted":"0","num_feature":"5","num_nodes":"15","size_leaf_vector":"1"}},{"base_weights":[4.2793644E-4,-1.2355834E-1,1.9343309E-1,-1.9944105E-1,-3.0488439E-2,3.4883204E-1,1.2531711E-1,-8.260964E-3,-1.4630459E-2,1.1981911E-2,-3.492169E-3,1.14420615E-2,2.2278368E-2,-9.972972E-3,9.859521E-3],"categories":[],"categories_nodes":[],"categories_segments":[],"categories_sizes":[],"default_left":[0,0,0,0,0,0,0,0,0,0,0,0,0,0,0],"id":22,"left_children":[1,3,5,7,9,11,13,-1,-1,-1,-1,-1,-1,-1,-1],"loss_changes":[2.967304E0,5.301707E-1,4.915223E-1,1.08145356E-1,3.7513188E-1,1.1732459E-1,8.24991E-1,0E0,0E0,0E0,0E0,0E0,0E0,0E0,0E0],"parents":[2147483647,0,0,1,1,2,2,3,3,4,4,5,5,6,6],"right_children":[2,4,6,8,10,12,14,-1,-1,-1,-1,-1,-1,-1,-1],"split_conditions":[5.63E0,4E-2,5.7E0,5.19E0,6E-2,5.67E0,2.1E-1,-8.260964E-3,-1.4630459E-2,1.1981911E-2,-3.492169E-3,1.14420615E-2,2.2278368E-2,-9.972972E-3,9.859521E-3],"split_indices":[1,4,1,1,2,1,2,0,0,0,0,0,0,0,0],"split_type":[0,0,0,0,0,0,0,0,0,0,0,0,0,0,0],"sum_hessian":[1.23E2,7.5E1,4.8E1,4.1E1,3.4E1,1.4E1,3.4E1,3.1E1,1E1,4E0,3E1,7E0,7E0,6E0,2.8E1],"tree_param":{"num_deleted":"0","num_feature":"5","num_nodes":"15","size_leaf_vector":"1"}},{"base_weights":[4.8428992E-4,-1.3673632E-1,1.230364E-1,-2.0683628E-1,4.7967736E-2,8.549573E-2,4.0765113E-1,2.9972324E-3,-1.3970174E-2,-1.5425733E-3,2.4776278E-2,8.2486635E-3,-4.540316E-3,2.5406608E-2,5.2531324E-3],"categories":[],"categories_nodes":[],"categories_segments":[],"categories_sizes":[],"default_left":[0,0,0,0,0,0,0,0,0,0,0,0,0,0,0],"id":23,"left_children":[1,3,5,7,9,11,13,-1,-1,-1,-1,-1,-1,-1,-1],"loss_changes":[2.0852711E0,7.6240396E-1,6.824168E-1,8.3115506E-1,5.8970034E-1,8.271953E-1,2.013402E-1,0E0,0E0,0E0,0E0,0E0,0E0,0E0,0E0],"parents":[2147483647,0,0,1,1,2,2,3,3,4,4,5,5,6,6],"right_children":[2,4,6,8,10,12,14,-1,-1,-1,-1,-1,-1,-1,-1],"split_conditions":[3.8E-1,9E-2,7.8E-1,1E-1,3.1E-1,3.1E-1,4.4E-1,2.9972324E-3,-1.3970174E-2,-1.5425733E-3,2.4776278E-2,8.2486635E-3,-4.540316E-3,2.5406608E-2,5.2531324E-3],"split_indices":[3,4,3,3,3,2,2,0,0,0,0,0,0,0,0],"split_type":[0,0,0,0,0,0,0,0,0,0,0,0,0,0,0],"sum_hessian":[1.23E2,5.8E1,6.5E1,4.2E1,1.6E1,5.8E1,7E0,9E0,3.3E1,1.4E1,2E0,4E1,1.8E1,5E0,2E0],"tree_param":{"num_deleted":"0","num_feature":"5","num_nodes":"15","size_leaf_vector":"1"}},{"base_weights":[6.48859E-4,-2.0130144E-1,1.260386E-1,-2.5375748E-1,2.187834E-2,4.5922305E-2,2.3379724E-1,-8.392568E-3,-2.0331308E-2,5.097006E-3,-6.496665E-3,7.38758E-3,-2.010949E-3,-6.493068E-3,1.3649026E-2],"categories":[],"categories_nodes":[],"categories_segments":[],"categories_sizes":[],"default_left":[0,0,0,0,0,0,0,0,0,0,0,0,0,0,0],"id":24,"left_children":[1,3,5,7,9,11,13,-1,-1,-1,-1,-1,-1,-1,-1],"loss_changes":[3.1400142E0,5.588645E-1,6.5507317E-1,4.714694E-1,1.22088656E-1,3.933121E-1,4.8082817E-1,0E0,0E0,0E0,0E0,0E0,0E0,0E0,0E0],"parents":[2147483647,0,0,1,1,2,2,3,3,4,4,5,5,6,6],"right_children":[2,4,6,8,10,12,14,-1,-1,-1,-1,-1,-1,-1,-1],"split_conditions":[5.2E0,3.9E-1,5.72E0,2.5E-1,5.35E0,3.9E-1,3.1E-1,-8.392568E-3,-2.0331308E-2,5.097006E-3,-6.496665E-3,7.38758E-3,-2.010949E-3,-6.493068E-3,1.3649026E-2],"split_indices":[0,3,0,3,1,3,3,0,0,0,0,0,0,0,0],"split_type":[0,0,0,0,0,0,0,0,0,0,0,0,0,0,0],"sum_hessian":[1.23E2,4.7E1,7.6E1,3.8E1,9E0,4.4E1,3.2E1,2.5E1,1.3E1,6E0,3E0,2E1,2.4E1,3E0,2.9E1],"tree_param":{"num_deleted":"0","num_feature":"5","num_nodes":"15","size_leaf_vector":"1"}},{"base_weights":[5.451996E-4,-1.2941924E-1,1.7753918E-1,-1.9155346E-1,-6.313718E-3,2.0392703E-1,-6.3294806E-3,-8.062172E-3,-2.3163334E-2,6.141261E-3,-5.8043557E-3,1.3498411E-2,5.356991E-3],"categories":[],"categories_nodes":[],"categories_segments":[],"categories_sizes":[],"default_left":[0,0,0,0,0,0,0,0,0,0,0,0,0],"id":25,"left_children":[1,3,5,7,9,11,-1,-1,-1,-1,-1,-1,-1],"loss_changes":[2.8523495E0,5.463035E-1,4.342358E-1,3.5384333E-1,3.5444167E-1,2.9554725E-1,0E0,0E0,0E0,0E0,0E0,0E0,0E0],"parents":[2147483647,0,0,1,1,2,2,3,3,4,4,5,5],"right_children":[2,4,6,8,10,12,-1,-1,-1,-1,-1,-1,-1],"split_conditions":[5.58E0,5.2E0,3.2E-1,7E-2,1.8E-1,3.1E-1,-6.3294806E-3,-8.062172E-3,-2.3163334E-2,6.141261E-3,-5.8043557E-3,1.3498411E-2,5.356991E-3],"split_indices":[0,0,4,4,2,2,0,0,0,0,0,0,0],"split_type":[0,0,0,0,0,0,0,0,0,0,0,0,0],"sum_hessian":[1.23E2,7.1E1,5.2E1,4.7E1,2.4E1,4.8E1,4E0,4.3E1,4E0,1.1E1,1.3E1,2.8E1,2E1],"tree_param":{"num_deleted":"0","num_feature":"5","num_nodes":"13","size_leaf_vector":"1"}},{"base_weights":[4.4359852E-4,-1.23164274E-1,1.6878153E-1,-1.8230447E-1,-5.991154E-3,-4.3801307E-3,1.9669147E-1,-1.1595811E-2,1.4174299E-3,1.7189661E-2,-2.2361472E-3,2.0436749E-2,6.3594417E-3],"categories":[],"categories_nodes":[],"categories_segments":[],"categories_sizes":[],"default_left":[0,0,0,0,0,0,0,0,0,0,0,0,0],"id":26,"left_children":[1,3,5,7,9,-1,11,-1,-1,-1,-1,-1,-1],"loss_changes":[2.5801687E0,4.9492323E-1,3.8428771E-1,4.997033E-1,3.396082E-1,0E0,6.74042E-1,0E0,0E0,0E0,0E0,0E0,0E0],"parents":[2147483647,0,0,1,1,2,2,3,3,4,4,6,6],"right_children":[2,4,6,8,10,-1,12,-1,-1,-1,-1,-1,-1],"split_conditions":[5.58E0,5.2E0,2.9E-1,3.9E-1,1.4E-1,-4.3801307E-3,4.6E-1,-1.1595811E-2,1.4174299E-3,1.7189661E-2,-2.2361472E-3,2.0436749E-2,6.3594417E-3],"split_indices":[0,0,3,3,3,0,3,0,0,0,0,0,0],"split_type":[0,0,0,0,0,0,0,0,0,0,0,0,0],"sum_hessian":[1.23E2,7.1E1,5.2E1,4.7E1,2.4E1,5E0,4.7E1,3.8E1,9E0,2E0,2.2E1,1.1E1,3.6E1],"tree_param":{"num_deleted":"0","num_feature":"5","num_nodes":"13","size_leaf_vector":"1"}},{"base_weights":[5.3150265E-4,-1.1697267E-1,1.6055593E-1,-1.7329639E-1,-5.3864233E-3,1.8583581E-1,-6.4872266E-3,-1.102355E-2,1.3502886E-3,1.6502073E-2,-2.1268246E-3,-4.181034E-3,1.0888449E-2],"categories":[],"categories_nodes":[],"categories_segments":[],"categories_sizes":[],"default_left":[0,0,0,0,0,0,0,0,0,0,0,0,0],"id":27,"left_children":[1,3,5,7,9,11,-1,-1,-1,-1,-1,-1,-1],"loss_changes":[2.3316274E0,4.4890743E-1,3.9734054E-1,4.5181274E-1,3.1231803E-1,4.264282E-1,0E0,0E0,0E0,0E0,0E0,0E0,0E0],"parents":[2147483647,0,0,1,1,2,2,3,3,4,4,5,5],"right_children":[2,4,6,8,10,12,-1,-1,-1,-1,-1,-1,-1],"split_conditions":[5.58E0,5.2E0,3.2E-1,3.9E-1,1.4E-1,2.9E-1,-6.4872266E-3,-1.102355E-2,1.3502886E-3,1.6502073E-2,-2.1268246E-3,-4.181034E-3,1.0888449E-2],"split_indices":[0,0,4,3,3,3,0,0,0,0,0,0,0],"split_type":[0,0,0,0,0,0,0,0,0,0,0,0,0],"sum_hessian":[1.23E2,7.1E1,5.2E1,4.7E1,2.4E1,4.8E1,4E0,3.8E1,9E0,2E0,2.2E1,5E0,4.3E1],"tree_param":{"num_deleted":"0","num_feature":"5","num_nodes":"13","size_leaf_vector":"1"}},{"base_weights":[5.2485056E-4,-1.1109116E-1,1.5253024E-1,-1.6473341E-1,-4.82373E-3,1.7661317E-1,-6.1989054E-3,-6.808353E-3,-2.1128548E-2,6.833228E-3,-4.569338E-3,3.328956E-3,1.17469905E-2],"categories":[],"categories_nodes":[],"categories_segments":[],"categories_sizes":[],"default_left":[0,0,0,0,0,0,0,0,0,0,0,0,0],"id":28,"left_children":[1,3,5,7,9,11,-1,-1,-1,-1,-1,-1,-1],"loss_changes":[2.1038024E0,4.0718287E-1,3.6055255E-1,3.2108998E-1,3.0631217E-1,3.0344784E-1,0E0,0E0,0E0,0E0,0E0,0E0,0E0],"parents":[2147483647,0,0,1,1,2,2,3,3,4,4,5,5],"right_children":[2,4,6,8,10,12,-1,-1,-1,-1,-1,-1,-1],"split_conditions":[5.58E0,5.2E0,3.2E-1,7E-2,1.4E-1,2.6E-1,-6.1989054E-3,-6.808353E-3,-2.1128548E-2,6.833228E-3,-4.569338E-3,3.328956E-3,1.17469905E-2],"split_indices":[0,0,4,4,2,2,0,0,0,0,0,0,0],"split_type":[0,0,0,0,0,0,0,0,0,0,0,0,0],"sum_hessian":[1.23E2,7.1E1,5.2E1,4.7E1,2.4E1,4.8E1,4E0,4.3E1,4E0,9E0,1.5E1,1.7E1,3.1E1],"tree_param":{"num_deleted":"0","num_feature":"5","num_nodes":"13","size_leaf_vector":"1"}},{"base_weights":[4.306054E-4,-1.5679081E-1,9.804893E-2,-2.0138289E-1,3.217657E-2,7.0638664E-2,3.4551418E-1,1.7173272E-4,-1.2758091E-2,6.3566053E-3,-4.372769E-3,5.5320193E-3,-5.809739E-3,2.2138251E-2,3.1229705E-3],"categories":[],"categories_nodes":[],"categories_segments":[],"categories_sizes":[],"default_left":[0,0,0,0,0,0,0,0,0,0,0,0,0,0,0],"id":29,"left_children":[1,3,5,7,9,11,13,-1,-1,-1,-1,-1,-1,-1,-1],"loss_changes":[1.9031265E0,4.0349615E-1,5.067029E-1,4.2451072E-1,1.134765E-1,5.258472E-1,1.9262761E-1,0E0,0E0,0E0,0E0,0E0,0E0,0E0,0E0],"parents":[2147483647,0,0,1,1,2,2,3,3,4,4,5,5,6,6],"right_children":[2,4,6,8,10,12,14,-1,-1,-1,-1,-1,-1,-1,-1],"split_conditions":[5.2E0,3.9E-1,7.8E-1,1E-1,1E-2,6.3E-1,9.1E-1,1.7173272E-4,-1.2758091E-2,6.3566053E-3,-4.372769E-3,5.5320193E-3,-5.809739E-3,2.2138251E-2,3.1229705E-3],"split_indices":[0,3,3,3,4,3,3,0,0,0,0,0,0,0,0],"split_type":[0,0,0,0,0,0,0,0,0,0,0,0,0,0,0],"sum_hessian":[1.23E2,4.7E1,7.6E1,3.8E1,9E0,6.9E1,7E0,8E0,3E1,5E0,4E0,5.7E1,1.2E1,5E0,2E0],"tree_param":{"num_deleted":"0","num_feature":"5","num_nodes":"15","size_leaf_vector":"1"}},{"base_weights":[4.6729643E-4,-1.02280475E-1,1.4039552E-1,8.932624E-2,-1.3058645E-1,-4.5468137E-3,1.6570346E-1,-1.0276622E-2,2.1989197E-2,-2.5956431E-2,-4.9791234E-3,1.8521972E-2,4.946385E-3],"categories":[],"categories_nodes":[],"categories_segments":[],"categories_sizes":[],"default_left":[0,0,0,0,0,0,0,0,0,0,0,0,0],"id":30,"left_children":[1,3,5,7,9,-1,11,-1,-1,-1,-1,-1,-1],"loss_changes":[1.782778E0,3.936209E-1,3.1489706E-1,1.026882E0,7.2704923E-1,0E0,6.3106835E-1,0E0,0E0,0E0,0E0,0E0,0E0],"parents":[2147483647,0,0,1,1,2,2,3,3,4,4,6,6],"right_children":[2,4,6,8,10,-1,12,-1,-1,-1,-1,-1,-1],"split_conditions":[5.58E0,1E-1,2.9E-1,7E-2,1.2E-1,-4.5468137E-3,4.6E-1,-1.0276622E-2,2.1989197E-2,-2.5956431E-2,-4.9791234E-3,1.8521972E-2,4.946385E-3],"split_indices":[0,3,3,3,3,0,3,0,0,0,0,0,0],"split_type":[0,0,0,0,0,0,0,0,0,0,0,0,0],"sum_hessian":[1.23E2,7.1E1,5.2E1,9E0,6.2E1,5E0,4.7E1,5E0,4E0,4E0,5.8E1,1.1E1,3.6E1],"tree_param":{"num_deleted":"0","num_feature":"5","num_nodes":"13","size_leaf_vector":"1"}},{"base_weights":[4.4271295E-4,-9.584111E-2,8.6433284E-2,8.5476376E-2,-1.2967132E-1,5.5069838E-2,3.253059E-1,-9.809503E-3,2.1011898E-2,-2.4802811E-2,-4.6005244E-3,6.3721696E-3,-5.242896E-3,2.0907132E-2,2.800196E-3],"categories":[],"categories_nodes":[],"categories_segments":[],"categories_sizes":[],"default_left":[0,0,0,0,0,0,0,0,0,0,0,0,0,0,0],"id":31,"left_children":[1,3,5,7,9,11,13,-1,-1,-1,-1,-1,-1,-1,-1],"loss_changes":[1.0266603E0,3.6438143E-1,4.8176003E-1,9.369887E-1,6.601977E-1,6.837922E-1,1.7579967E-1,0E0,0E0,0E0,0E0,0E0,0E0,0E0,0E0],"parents":[2147483647,0,0,1,1,2,2,3,3,4,4,5,5,6,6],"right_children":[2,4,6,8,10,12,14,-1,-1,-1,-1,-1,-1,-1,-1],"split_conditions":[3.8E-1,1E-1,7.8E-1,7E-2,1.2E-1,3.1E-1,4.4E-1,-9.809503E-3,2.1011898E-2,-2.4802811E-2,-4.6005244E-3,6.3721696E-3,-5.242896E-3,2.0907132E-2,2.800196E-3],"split_indices":[3,3,3,3,3,2,2,0,0,0,0,0,0,0,0],"split_type":[0,0,0,0,0,0,0,0,0,0,0,0,0,0,0],"sum_hessian":[1.23E2,5.8E1,6.5E1,9E0,4.9E1,5.8E1,7E0,5E0,4E0,4E0,4.5E1,4E1,1.8E1,5E0,2E0],"tree_param":{"num_deleted":"0","num_feature":"5","num_nodes":"15","size_leaf_vector":"1"}},{"base_weights":[4.4744145E-4,-9.120462E-2,8.230121E-2,8.179215E-2,-1.2348476E-1,5.2325998E-2,3.106211E-1,-9.363617E-3,2.0078037E-2,-2.3700466E-2,-4.3730265E-3,6.057494E-3,-4.987836E-3,1.995681E-2,2.6881886E-3],"categories":[],"categories_nodes":[],"categories_segments":[],"categories_sizes":[],"default_left":[0,0,0,0,0,0,0,0,0,0,0,0,0,0,0],"id":32,"left_children":[1,3,5,7,9,11,13,-1,-1,-1,-1,-1,-1,-1,-1],"loss_changes":[9.3025833E-1,3.317351E-1,4.4015115E-1,8.549651E-1,6.043268E-1,6.183577E-1,1.5978855E-1,0E0,0E0,0E0,0E0,0E0,0E0,0E0,0E0],"parents":[2147483647,0,0,1,1,2,2,3,3,4,4,5,5,6,6],"right_children":[2,4,6,8,10,12,14,-1,-1,-1,-1,-1,-1,-1,-1],"split_conditions":[3.8E-1,1E-1,7.8E-1,7E-2,1.2E-1,3.1E-1,4.4E-1,-9.363617E-3,2.0078037E-2,-2.3700466E-2,-4.3730265E-3,6.057494E-3,-4.987836E-3,1.995681E-2,2.6881886E-3],"split_indices":[3,3,3,3,3,2,2,0,0,0,0,0,0,0,0],"split_type":[0,0,0,0,0,0,0,0,0,0,0,0,0,0,0],"sum_hessian":[1.23E2,5.8E1,6.5E1,9E0,4.9E1,5.8E1,7E0,5E0,4E0,4E0,4.5E1,4E1,1.8E1,5E0,2E0],"tree_param":{"num_deleted":"0","num_feature":"5","num_nodes":"15","size_leaf_vector":"1"}},{"base_weights":[4.5079776E-4,-8.209918E-2,1.2895179E-1,-1.3500279E-1,-3.7129913E-2,2.6215702E-1,7.109811E-2,-5.6446544E-3,-1.9771429E-2,1.1644165E-2,-3.8654103E-3,7.4890256E-3,1.7852819E-2,-1.1649194E-2,6.96014E-3],"categories":[],"categories_nodes":[],"categories_segments":[],"categories_sizes":[],"default_left":[0,0,0,0,0,0,0,0,0,0,0,0,0,0,0],"id":33,"left_children":[1,3,5,7,9,11,13,-1,-1,-1,-1,-1,-1,-1,-1],"loss_changes":[1.3153509E0,1.7711103E-1,3.644415E-1,1.763283E-1,4.592217E-1,1.2789458E-1,7.306907E-1,0E0,0E0,0E0,0E0,0E0,0E0,0E0,0E0],"parents":[2147483647,0,0,1,1,2,2,3,3,4,4,5,5,6,6],"right_children":[2,4,6,8,10,12,14,-1,-1,-1,-1,-1,-1,-1,-1],"split_conditions":[5.63E0,2E-2,5.7E0,3E-1,2E-2,5.67E0,2.1E-1,-5.6446544E-3,-1.9771429E-2,1.1644165E-2,-3.8654103E-3,7.4890256E-3,1.7852819E-2,-1.1649194E-2,6.96014E-3],"split_indices":[1,4,1,2,2,1,2,0,0,0,0,0,0,0,0],"split_type":[0,0,0,0,0,0,0,0,0,0,0,0,0,0,0],"sum_hessian":[1.23E2,7.5E1,4.8E1,3.4E1,4.1E1,1.4E1,3.4E1,3.2E1,2E0,5E0,3.6E1,7E0,7E0,6E0,2.8E1],"tree_param":{"num_deleted":"0","num_feature":"5","num_nodes":"15","size_leaf_vector":"1"}},{"base_weights":[4.4046494E-4,-7.811102E-2,1.22717105E-1,7.6334536E-2,-9.958737E-2,8.513836E-2,1.7949225E-2,-9.283811E-3,1.9404415E-2,-2.2396239E-2,-3.685519E-3,9.647034E-3,-3.718878E-3],"categories":[],"categories_nodes":[],"categories_segments":[],"categories_sizes":[],"default_left":[0,0,0,0,0,0,0,0,0,0,0,0,0],"id":34,"left_children":[1,3,5,7,9,11,-1,-1,-1,-1,-1,-1,-1],"loss_changes":[1.1910118E0,2.5422895E-1,4.1533202E-1,8.120163E-1,5.829176E-1,7.380132E-1,0E0,0E0,0E0,0E0,0E0,0E0,0E0],"parents":[2147483647,0,0,1,1,2,2,3,3,4,4,5,5],"right_children":[2,4,6,8,10,12,-1,-1,-1,-1,-1,-1,-1],"split_conditions":[5.63E0,1E-1,7.2E-1,5.14E0,1.2E-1,5.6E-1,1.7949225E-2,-9.283811E-3,1.9404415E-2,-2.2396239E-2,-3.685519E-3,9.647034E-3,-3.718878E-3],"split_indices":[1,3,3,1,3,3,0,0,0,0,0,0,0],"split_type":[0,0,0,0,0,0,0,0,0,0,0,0,0],"sum_hessian":[1.23E2,7.5E1,4.8E1,9E0,6.6E1,4.2E1,6E0,5E0,4E0,4E0,6.2E1,2.5E1,1.7E1],"tree_param":{"num_deleted":"0","num_feature":"5","num_nodes":"13","size_leaf_vector":"1"}},{"base_weights":[4.504944E-4,-1.2820707E-1,8.0332965E-2,-1.6763707E-1,1.9167959E-3,5.815598E-2,2.8048417E-1,-4.4322177E-3,-1.5531838E-2,4.73778E-3,-5.6264238E-3,1.8207721E-2,2.0156384E-3],"categories":[],"categories_nodes":[],"categories_segments":[],"categories_sizes":[],"default_left":[0,0,0,0,0,0,0,0,0,0,0,0,0],"id":35,"left_children":[1,3,5,7,-1,9,11,-1,-1,-1,-1,-1,-1],"loss_changes":[1.2744191E0,3.1513572E-1,3.3140856E-1,4.211253E-1,0E0,4.3949685E-1,1.4337397E-1,0E0,0E0,0E0,0E0,0E0,0E0],"parents":[2147483647,0,0,1,1,2,2,3,3,5,5,6,6],"right_children":[2,4,6,8,-1,10,12,-1,-1,-1,-1,-1,-1],"split_conditions":[5.2E0,3.9E-1,7.8E-1,2.5E-1,1.9167959E-3,6.3E-1,9.1E-1,-4.4322177E-3,-1.5531838E-2,4.73778E-3,-5.6264238E-3,1.8207721E-2,2.0156384E-3],"split_indices":[0,3,3,3,0,3,3,0,0,0,0,0,0],"split_type":[0,0,0,0,0,0,0,0,0,0,0,0,0],"sum_hessian":[1.23E2,4.7E1,7.6E1,3.8E1,9E0,6.9E1,7E0,2.5E1,1.3E1,5.7E1,1.2E1,5E0,2E0],"tree_param":{"num_deleted":"0","num_feature":"5","num_nodes":"13","size_leaf_vector":"1"}},{"base_weights":[4.3318103E-4,-8.298145E-2,1.14031844E-1,-1.2198669E-1,-5.665554E-3,1.6618651E-1,3.4967292E-2,-4.628261E-3,-1.3636507E-2,5.4391148E-3,-5.1474166E-3,2.0863255E-3,1.7684832E-2,-2.7313072E-4,1.7166356E-2],"categories":[],"categories_nodes":[],"categories_segments":[],"categories_sizes":[],"default_left":[0,0,0,0,0,0,0,0,0,0,0,0,0,0,0],"id":36,"left_children":[1,3,5,7,9,11,13,-1,-1,-1,-1,-1,-1,-1,-1],"loss_changes":[1.1749915E0,2.1527883E-1,2.1358263E-1,1.9804424E-1,2.7837765E-1,7.277523E-1,2.6897734E-1,0E0,0E0,0E0,0E0,0E0,0E0,0E0,0E0],"parents":[2147483647,0,0,1,1,2,2,3,3,4,4,5,5,6,6],"right_children":[2,4,6,8,10,12,14,-1,-1,-1,-1,-1,-1,-1,-1],"split_conditions":[5.58E0,5.2E0,3.1E-1,5.35E0,1.8E-1,2.7E-1,5.78E0,-4.628261E-3,-1.3636507E-2,5.4391148E-3,-5.1474166E-3,2.0863255E-3,1.7684832E-2,-2.7313072E-4,1.7166356E-2],"split_indices":[0,0,2,1,2,2,1,0,0,0,0,0,0,0,0],"split_type":[0,0,0,0,0,0,0,0,0,0,0,0,0,0,0],"sum_hessian":[1.23E2,7.1E1,5.2E1,4.7E1,2.4E1,3.1E1,2.1E1,4E1,7E0,1.1E1,1.3E1,1.9E1,1.2E1,1.9E1,2E0],"tree_param":{"num_deleted":"0","num_feature":"5","num_nodes":"15","size_leaf_vector":"1"}},{"base_weights":[4.8719393E-4,-6.887536E-2,1.0845892E-1,7.9609126E-2,-8.956956E-2,7.3824294E-2,1.6328653E-2,-8.449978E-3,1.8730937E-2,-2.0998163E-2,-3.2532332E-3,8.713561E-3,-3.7325236E-3],"categories":[],"categories_nodes":[],"categories_segments":[],"categories_sizes":[],"default_left":[0,0,0,0,0,0,0,0,0,0,0,0,0],"id":37,"left_children":[1,3,5,7,9,11,-1,-1,-1,-1,-1,-1,-1],"loss_changes":[9.2865056E-1,2.3555928E-1,3.5432917E-1,7.2840375E-1,5.2473927E-1,6.403426E-1,0E0,0E0,0E0,0E0,0E0,0E0,0E0],"parents":[2147483647,0,0,1,1,2,2,3,3,4,4,5,5],"right_children":[2,4,6,8,10,12,-1,-1,-1,-1,-1,-1,-1],"split_conditions":[5.63E0,1E-1,7.2E-1,5.14E0,1.2E-1,5.6E-1,1.6328653E-2,-8.449978E-3,1.8730937E-2,-2.0998163E-2,-3.2532332E-3,8.713561E-3,-3.7325236E-3],"split_indices":[1,3,3,1,3,3,0,0,0,0,0,0,0],"split_type":[0,0,0,0,0,0,0,0,0,0,0,0,0],"sum_hessian":[1.23E2,7.5E1,4.8E1,9E0,6.6E1,4.2E1,6E0,5E0,4E0,4E0,6.2E1,2.5E1,1.7E1],"tree_param":{"num_deleted":"0","num_feature":"5","num_nodes":"13","size_leaf_vector":"1"}},{"base_weights":[4.925457E-4,-7.607663E-2,1.0476778E-1,7.616975E-2,-9.860946E-2,-4.4642817E-3,1.261343E-1,-8.285745E-3,1.8167162E-2,-2.006491E-2,-3.7241452E-3,1.5779193E-2,3.2358423E-3],"categories":[],"categories_nodes":[],"categories_segments":[],"categories_sizes":[],"default_left":[0,0,0,0,0,0,0,0,0,0,0,0,0],"id":38,"left_children":[1,3,5,7,9,-1,11,-1,-1,-1,-1,-1,-1],"loss_changes":[9.900423E-1,2.4903935E-1,2.2330892E-1,6.900028E-1,4.4148254E-1,0E0,5.424749E-1,0E0,0E0,0E0,0E0,0E0,0E0],"parents":[2147483647,0,0,1,1,2,2,3,3,4,4,6,6],"right_children":[2,4,6,8,10,-1,12,-1,-1,-1,-1,-1,-1],"split_conditions":[5.58E0,1E-1,2.9E-1,7E-2,1.2E-1,-4.4642817E-3,4.6E-1,-8.285745E-3,1.8167162E-2,-2.006491E-2,-3.7241452E-3,1.5779193E-2,3.2358423E-3],"split_indices":[0,3,3,3,3,0,3,0,0,0,0,0,0],"split_type":[0,0,0,0,0,0,0,0,0,0,0,0,0],"sum_hessian":[1.23E2,7.1E1,5.2E1,9E0,6.2E1,5E0,4.7E1,5E0,4E0,4E0,5.8E1,1.1E1,3.6E1],"tree_param":{"num_deleted":"0","num_feature":"5","num_nodes":"13","size_leaf_vector":"1"}},{"base_weights":[4.7052585E-4,-1.0804921E-1,6.784898E-2,-8.2018286E-2,-1.7383797E-2,1.879093E-1,2.930128E-2,-5.1992983E-3,9.194802E-3,2.398476E-4,1.6359752E-2,-6.90607E-4,5.477786E-3],"categories":[],"categories_nodes":[],"categories_segments":[],"categories_sizes":[],"default_left":[0,0,0,0,0,0,0,0,0,0,0,0,0],"id":39,"left_children":[1,3,5,7,-1,9,11,-1,-1,-1,-1,-1,-1],"loss_changes":[9.066841E-1,2.8203303E-1,3.512928E-1,2.636674E-1,0E0,4.710567E-1,2.0316914E-1,0E0,0E0,0E0,0E0,0E0,0E0],"parents":[2147483647,0,0,1,1,2,2,3,3,5,5,6,6],"right_children":[2,4,6,8,-1,10,12,-1,-1,-1,-1,-1,-1],"split_conditions":[5.2E0,7E-2,1E-1,5.16E0,-1.7383797E-2,2.6E-1,5.77E0,-5.1992983E-3,9.194802E-3,2.398476E-4,1.6359752E-2,-6.90607E-4,5.477786E-3],"split_indices":[0,4,4,0,0,2,0,0,0,0,0,0,0],"split_type":[0,0,0,0,0,0,0,0,0,0,0,0,0],"sum_hessian":[1.23E2,4.7E1,7.6E1,4.3E1,4E0,1.8E1,5.8E1,4E1,3E0,8E0,1E1,3.8E1,2E1],"tree_param":{"num_deleted":"0","num_feature":"5","num_nodes":"13","size_leaf_vector":"1"}},{"base_weights":[4.7938604E-4,-1.0278766E-1,6.459632E-2,-1.4008386E-1,2.6885008E-3,1.7896248E-1,2.7877131E-2,-3.283492E-3,-1.3772771E-2,5.956132E-3,2.0920072E-2,4.38993E-3,-3.161783E-3],"categories":[],"categories_nodes":[],"categories_segments":[],"categories_sizes":[],"default_left":[0,0,0,0,0,0,0,0,0,0,0,0,0],"id":40,"left_children":[1,3,5,7,-1,9,11,-1,-1,-1,-1,-1,-1],"loss_changes":[8.2103384E-1,2.8111905E-1,3.187621E-1,3.7878674E-1,0E0,2.4014723E-1,3.221633E-1,0E0,0E0,0E0,0E0,0E0,0E0],"parents":[2147483647,0,0,1,1,2,2,3,3,5,5,6,6],"right_children":[2,4,6,8,-1,10,12,-1,-1,-1,-1,-1,-1],"split_conditions":[5.2E0,3.9E-1,1E-1,2.5E-1,2.6885008E-3,9E-2,5.6E-1,-3.283492E-3,-1.3772771E-2,5.956132E-3,2.0920072E-2,4.38993E-3,-3.161783E-3],"split_indices":[0,3,4,3,0,4,3,0,0,0,0,0,0],"split_type":[0,0,0,0,0,0,0,0,0,0,0,0,0],"sum_hessian":[1.23E2,4.7E1,7.6E1,3.8E1,9E0,1.8E1,5.8E1,2.5E1,1.3E1,1.5E1,3E0,3.5E1,2.3E1],"tree_param":{"num_deleted":"0","num_feature":"5","num_nodes":"13","size_leaf_vector":"1"}},{"base_weights":[5.110323E-4,-6.6849954E-2,9.224541E-2,-1.2037027E-2,-2.5982696E-3,1.1369182E-1,-7.4574375E-3,4.4618244E-4,8.504587E-3],"categories":[],"categories_nodes":[],"categories_segments":[],"categories_sizes":[],"default_left":[0,0,0,0,0,0,0,0,0],"id":41,"left_children":[1,3,5,-1,-1,7,-1,-1,-1],"loss_changes":[7.662291E-1,1.788072E-1,2.8027302E-1,0E0,0E0,2.8582352E-1,0E0,0E0,0E0],"parents":[2147483647,0,0,1,1,2,2,5,5],"right_children":[2,4,6,-1,-1,8,-1,-1,-1],"split_conditions":[5.58E0,5.12E0,3.2E-1,-1.2037027E-2,-2.5982696E-3,2.6E-1,-7.4574375E-3,4.4618244E-4,8.504587E-3],"split_indices":[0,0,4,0,0,2,0,0,0],"split_type":[0,0,0,0,0,0,0,0,0],"sum_hessian":[1.23E2,7.1E1,5.2E1,5E0,6.6E1,4.8E1,4E0,1.7E1,3.1E1],"tree_param":{"num_deleted":"0","num_feature":"5","num_nodes":"9","size_leaf_vector":"1"}},{"base_weights":[4.3227684E-4,-5.628047E-2,8.871261E-2,-3.7691787E-2,-1.1115255E-2,-6.822543E-2,1.3036178E-1,-2.5687094E-3,1.6689923E-2,1.7574286E-2,-1.2977113E-2,1.4457891E-2,1.142517E-3],"categories":[],"categories_nodes":[],"categories_segments":[],"categories_sizes":[],"default_left":[0,0,0,0,0,0,0,0,0,0,0,0,0],"id":42,"left_children":[1,3,5,7,-1,9,11,-1,-1,-1,-1,-1,-1],"loss_changes":[6.20814E-1,2.2881697E-1,3.2145944E-1,3.5675153E-1,0E0,8.8873965E-1,6.5398335E-1,0E0,0E0,0E0,0E0,0E0,0E0],"parents":[2147483647,0,0,1,1,2,2,3,3,5,5,6,6],"right_children":[2,4,6,8,-1,10,12,-1,-1,-1,-1,-1,-1],"split_conditions":[5.63E0,5.5E0,2.1E-1,3.6E-1,-1.1115255E-2,5.68E0,5.6E-1,-2.5687094E-3,1.6689923E-2,1.7574286E-2,-1.2977113E-2,1.4457891E-2,1.142517E-3],"split_indices":[1,1,2,2,0,1,3,0,0,0,0,0,0],"split_type":[0,0,0,0,0,0,0,0,0,0,0,0,0],"sum_hessian":[1.23E2,7.5E1,4.8E1,6.8E1,7E0,1E1,3.8E1,6.6E1,2E0,3E0,7E0,1.5E1,2.3E1],"tree_param":{"num_deleted":"0","num_feature":"5","num_nodes":"13","size_leaf_vector":"1"}},{"base_weights":[5.046083E-4,-9.20988E-2,5.800016E-2,-1.2697548E-1,2.704541E-3,3.8857356E-2,2.3152344E-1,-2.8507456E-3,-1.2721022E-2,3.612556E-3,-5.815413E-3,1.53667675E-2,9.216303E-4],"categories":[],"categories_nodes":[],"categories_segments":[],"categories_sizes":[],"default_left":[0,0,0,0,0,0,0,0,0,0,0,0,0],"id":43,"left_children":[1,3,5,7,-1,9,11,-1,-1,-1,-1,-1,-1],"loss_changes":[6.602199E-1,2.4561799E-1,2.4961352E-1,3.360178E-1,0E0,3.643204E-1,1.1832872E-1,0E0,0E0,0E0,0E0,0E0,0E0],"parents":[2147483647,0,0,1,1,2,2,3,3,5,5,6,6],"right_children":[2,4,6,8,-1,10,12,-1,-1,-1,-1,-1,-1],"split_conditions":[5.2E0,3.9E-1,7.8E-1,2.5E-1,2.704541E-3,6.3E-1,9.1E-1,-2.8507456E-3,-1.2721022E-2,3.612556E-3,-5.815413E-3,1.53667675E-2,9.216303E-4],"split_indices":[0,3,3,3,0,3,3,0,0,0,0,0,0],"split_type":[0,0,0,0,0,0,0,0,0,0,0,0,0],"sum_hessian":[1.23E2,4.7E1,7.6E1,3.8E1,9E0,6.9E1,7E0,2.5E1,1.3E1,5.7E1,1.2E1,5E0,2E0],"tree_param":{"num_deleted":"0","num_feature":"5","num_nodes":"13","size_leaf_vector":"1"}},{"base_weights":[4.8430613E-4,-8.76293E-2,5.5192206E-2,-6.3762516E-2,-1.5430254E-2,1.6178514E-1,2.1011602E-2,-4.212466E-3,9.120401E-3,5.2743442E-3,1.9399691E-2,-2.7151445E-3,3.5285868E-3],"categories":[],"categories_nodes":[],"categories_segments":[],"categories_sizes":[],"default_left":[0,0,0,0,0,0,0,0,0,0,0,0,0],"id":44,"left_children":[1,3,5,7,-1,9,11,-1,-1,-1,-1,-1,-1],"loss_changes":[5.977513E-1,2.4067542E-1,2.7702123E-1,2.2706516E-1,0E0,2.1513617E-1,2.2027299E-1,0E0,0E0,0E0,0E0,0E0,0E0],"parents":[2147483647,0,0,1,1,2,2,3,3,5,5,6,6],"right_children":[2,4,6,8,-1,10,12,-1,-1,-1,-1,-1,-1],"split_conditions":[5.2E0,7E-2,1E-1,5.16E0,-1.5430254E-2,9E-2,5.65E0,-4.212466E-3,9.120401E-3,5.2743442E-3,1.9399691E-2,-2.7151445E-3,3.5285868E-3],"split_indices":[0,4,4,0,0,4,1,0,0,0,0,0,0],"split_type":[0,0,0,0,0,0,0,0,0,0,0,0,0],"sum_hessian":[1.23E2,4.7E1,7.6E1,4.3E1,4E0,1.8E1,5.8E1,4E1,3E0,1.5E1,3E0,2.3E1,3.5E1],"tree_param":{"num_deleted":"0","num_feature":"5","num_nodes":"13","size_leaf_vector":"1"}},{"base_weights":[5.2067323E-4,-5.649712E-2,7.816852E-2,-1.0693155E-2,-4.3057095E-2,9.821346E-2,-7.327841E-3,-3.5275894E-4,-5.2315346E-3,2.9321128E-4,6.9738175E-3],"categories":[],"categories_nodes":[],"categories_segments":[],"categories_sizes":[],"default_left":[0,0,0,0,0,0,0,0,0,0,0],"id":45,"left_children":[1,3,5,-1,7,9,-1,-1,-1,-1,-1],"loss_changes":[5.489807E-1,1.466185E-1,2.4368879E-1,0E0,1.4704593E-1,1.8440491E-1,0E0,0E0,0E0,0E0,0E0],"parents":[2147483647,0,0,1,1,2,2,4,4,5,5],"right_children":[2,4,6,-1,8,10,-1,-1,-1,-1,-1],"split_conditions":[5.58E0,5.12E0,3.2E-1,-1.0693155E-2,5.35E0,5.65E0,-7.327841E-3,-3.5275894E-4,-5.2315346E-3,2.9321128E-4,6.9738175E-3],"split_indices":[0,0,4,0,1,1,0,0,0,0,0],"split_type":[0,0,0,0,0,0,0,0,0,0,0],"sum_hessian":[1.23E2,7.1E1,5.2E1,5E0,6.6E1,4.8E1,4E0,4.2E1,2.4E1,1.5E1,3.3E1],"tree_param":{"num_deleted":"0","num_feature":"5","num_nodes":"11","size_leaf_vector":"1"}},{"base_weights":[4.2849572E-4,-8.130483E-2,5.117515E-2,-1.1412707E-1,2.7995391E-3,3.314209E-2,2.1486984E-1,-3.3132364E-3,-1.3957754E-2,3.2369874E-3,-5.6766425E-3,1.433738E-2,6.882406E-4],"categories":[],"categories_nodes":[],"categories_segments":[],"categories_sizes":[],"default_left":[0,0,0,0,0,0,0,0,0,0,0,0,0],"id":46,"left_children":[1,3,5,7,-1,9,11,-1,-1,-1,-1,-1,-1],"loss_changes":[5.143205E-1,2.1724659E-1,2.2226098E-1,2.9484808E-1,0E0,3.2577872E-1,1.06438845E-1,0E0,0E0,0E0,0E0,0E0,0E0],"parents":[2147483647,0,0,1,1,2,2,3,3,5,5,6,6],"right_children":[2,4,6,8,-1,10,12,-1,-1,-1,-1,-1,-1],"split_conditions":[5.2E0,3.9E-1,7.8E-1,5.19E0,2.7995391E-3,6.3E-1,9.1E-1,-3.3132364E-3,-1.3957754E-2,3.2369874E-3,-5.6766425E-3,1.433738E-2,6.882406E-4],"split_indices":[0,3,3,1,0,3,3,0,0,0,0,0,0],"split_type":[0,0,0,0,0,0,0,0,0,0,0,0,0],"sum_hessian":[1.23E2,4.7E1,7.6E1,3.8E1,9E0,6.9E1,7E0,3E1,8E0,5.7E1,1.2E1,5E0,2E0],"tree_param":{"num_deleted":"0","num_feature":"5","num_nodes":"13","size_leaf_vector":"1"}},{"base_weights":[3.9943602E-4,-3.642859E-2,1.04078345E-1,-4.966152E-2,1.516898E-2,2.0192118E-1,-2.4344517E-2,-1.9493949E-3,-1.5165418E-2,1.3611638E-3,2.0292338E-2,-7.4759102E-3,9.703886E-3],"categories":[],"categories_nodes":[],"categories_segments":[],"categories_sizes":[],"default_left":[0,0,0,0,0,0,0,0,0,0,0,0,0],"id":47,"left_children":[1,3,5,7,-1,9,11,-1,-1,-1,-1,-1,-1],"loss_changes":[4.7345448E-1,4.1897735E-1,4.1082865E-1,2.3368615E-1,0E0,6.53545E-1,4.1094944E-1,0E0,0E0,0E0,0E0,0E0,0E0],"parents":[2147483647,0,0,1,1,2,2,3,3,5,5,6,6],"right_children":[2,4,6,8,-1,10,12,-1,-1,-1,-1,-1,-1],"split_conditions":[5.72E0,3.5E-1,3.1E-1,5.69E0,1.516898E-2,2.6E-1,7.8E-1,-1.9493949E-3,-1.5165418E-2,1.3611638E-3,2.0292338E-2,-7.4759102E-3,9.703886E-3],"split_indices":[0,2,2,0,0,2,3,0,0,0,0,0,0],"split_type":[0,0,0,0,0,0,0,0,0,0,0,0,0],"sum_hessian":[1.23E2,9.1E1,3.2E1,8.8E1,3E0,1.8E1,1.4E1,8.5E1,3E0,1E1,8E0,9E0,5E0],"tree_param":{"num_deleted":"0","num_feature":"5","num_nodes":"13","size_leaf_vector":"1"}},{"base_weights":[4.6826855E-4,-4.4092346E-2,6.983099E-2,-2.5937656E-2,-1.0348285E-2,-7.783512E-2,1.0919668E-1,-1.9019779E-3,1.5058021E-2,1.6019108E-2,-1.29240425E-2,1.2695546E-2,1.0660484E-3],"categories":[],"categories_nodes":[],"categories_segments":[],"categories_sizes":[],"default_left":[0,0,0,0,0,0,0,0,0,0,0,0,0],"id":48,"left_children":[1,3,5,7,-1,9,11,-1,-1,-1,-1,-1,-1],"loss_changes":[3.8325894E-1,2.2056296E-1,2.8617907E-1,2.768858E-1,0E0,7.9673696E-1,4.8689258E-1,0E0,0E0,0E0,0E0,0E0,0E0],"parents":[2147483647,0,0,1,1,2,2,3,3,5,5,6,6],"right_children":[2,4,6,8,-1,10,12,-1,-1,-1,-1,-1,-1],"split_conditions":[5.63E0,5.5E0,2.1E-1,3.6E-1,-1.0348285E-2,5.68E0,2.8E-1,-1.9019779E-3,1.5058021E-2,1.6019108E-2,-1.29240425E-2,1.2695546E-2,1.0660484E-3],"split_indices":[1,1,2,2,0,1,2,0,0,0,0,0,0],"split_type":[0,0,0,0,0,0,0,0,0,0,0,0,0],"sum_hessian":[1.23E2,7.5E1,4.8E1,6.8E1,7E0,1E1,3.8E1,6.6E1,2E0,3E0,7E0,1.4E1,2.4E1],"tree_param":{"num_deleted":"0","num_feature":"5","num_nodes":"13","size_leaf_vector":"1"}},{"base_weights":[5.24472E-4,-1.198958E-2,9.743722E-3,-6.4720355E-2,1.81722E-2,-4.6766326E-3,2.8015375E-3,1.0820363E-2,-3.85534E-5],"categories":[],"categories_nodes":[],"categories_segments":[],"categories_sizes":[],"default_left":[0,0,0,0,0,0,0,0,0],"id":49,"left_children":[1,3,-1,5,7,-1,-1,-1,-1],"loss_changes":[3.0153328E-1,1.8587595E-1,0E0,1.5048277E-1,2.7984735E-1,0E0,0E0,0E0,0E0],"parents":[2147483647,0,0,1,1,3,3,4,4],"right_children":[2,4,-1,6,8,-1,-1,-1,-1],"split_conditions":[7.8E-1,4E-2,9.743722E-3,3.9E-1,6E-2,-4.6766326E-3,2.8015375E-3,1.0820363E-2,-3.85534E-5],"split_indices":[3,4,0,3,4,0,0,0,0],"split_type":[0,0,0,0,0,0,0,0,0],"sum_hessian":[1.23E2,1.16E2,7E0,4.2E1,7.4E1,3.4E1,8E0,6E0,6.8E1],"tree_param":{"num_deleted":"0","num_feature":"5","num_nodes":"9","size_leaf_vector":"1"}},{"base_weights":[5.737594E-4,-7.1745075E-2,4.5473862E-2,-1.0111216E-1,5.1044926E-2,3.299665E-2,2.4144295E-1,-1.8953832E-3,-1.0837677E-2,6.623167E-3,-1.01709645E-2,5.1519475E-3,-4.8496036E-4,1.9207282E-2,2.5225838E-3],"categories":[],"categories_nodes":[],"categories_segments":[],"categories_sizes":[],"default_left":[0,0,0,0,0,0,0,0,0,0,0,0,0,0,0],"id":50,"left_children":[1,3,5,7,9,11,13,-1,-1,-1,-1,-1,-1,-1,-1],"loss_changes":[4.02651E-1,1.7386486E-1,1.8307039E-1,2.7729025E-1,2.1029447E-1,2.173121E-1,1.1295697E-1,0E0,0E0,0E0,0E0,0E0,0E0,0E0,0E0],"parents":[2147483647,0,0,1,1,2,2,3,3,4,4,5,5,6,6],"right_children":[2,4,6,8,10,12,14,-1,-1,-1,-1,-1,-1,-1,-1],"split_conditions":[5.2E0,3.9E-1,6.02E0,2.5E-1,3E-1,4E-1,6.1E0,-1.8953832E-3,-1.0837677E-2,6.623167E-3,-1.01709645E-2,5.1519475E-3,-4.8496036E-4,1.9207282E-2,2.5225838E-3],"split_indices":[0,3,0,3,2,3,0,0,0,0,0,0,0,0,0],"split_type":[0,0,0,0,0,0,0,0,0,0,0,0,0,0,0],"sum_hessian":[1.23E2,4.7E1,7.6E1,3.8E1,9E0,7.2E1,4E0,2.5E1,1.3E1,7E0,2E0,2.7E1,4.5E1,2E0,2E0],"tree_param":{"num_deleted":"0","num_feature":"5","num_nodes":"15","size_leaf_vector":"1"}},{"base_weights":[5.8602815E-4,-4.002311E-2,6.3796274E-2,-2.2256186E-2,-9.981307E-3,-7.5981624E-2,1.0108899E-1,-1.6883042E-3,1.4417916E-2,1.511343E-2,-1.2371647E-2,1.2012173E-2,8.3346164E-4],"categories":[],"categories_nodes":[],"categories_segments":[],"categories_sizes":[],"default_left":[0,0,0,0,0,0,0,0,0,0,0,0,0],"id":51,"left_children":[1,3,5,7,-1,9,11,-1,-1,-1,-1,-1,-1],"loss_changes":[3.1829053E-1,2.1187046E-1,2.566563E-1,2.4976547E-1,0E0,7.183364E-1,4.5027205E-1,0E0,0E0,0E0,0E0,0E0,0E0],"parents":[2147483647,0,0,1,1,2,2,3,3,5,5,6,6],"right_children":[2,4,6,8,-1,10,12,-1,-1,-1,-1,-1,-1],"split_conditions":[5.63E0,5.5E0,2.1E-1,3.6E-1,-9.981307E-3,5.68E0,2.8E-1,-1.6883042E-3,1.4417916E-2,1.511343E-2,-1.2371647E-2,1.2012173E-2,8.3346164E-4],"split_indices":[1,1,2,2,0,1,2,0,0,0,0,0,0],"split_type":[0,0,0,0,0,0,0,0,0,0,0,0,0],"sum_hessian":[1.23E2,7.5E1,4.8E1,6.8E1,7E0,1E1,3.8E1,6.6E1,2E0,3E0,7E0,1.4E1,2.4E1],"tree_param":{"num_deleted":"0","num_feature":"5","num_nodes":"13","size_leaf_vector":"1"}},{"base_weights":[6.3095946E-4,-3.1318802E-2,9.0572126E-2,-8.987261E-3,-1.0850127E-3,1.3017698E-1,-5.012251E-2,3.869737E-3,1.3925503E-2,-1.3160891E-2,2.5647792E-3],"categories":[],"categories_nodes":[],"categories_segments":[],"categories_sizes":[],"default_left":[0,0,0,0,0,0,0,0,0,0,0],"id":52,"left_children":[1,3,5,-1,-1,7,9,-1,-1,-1,-1],"loss_changes":[3.5630777E-1,1.2867942E-1,1.8435857E-1,0E0,0E0,1.8887088E-1,1.6883884E-1,0E0,0E0,0E0,0E0],"parents":[2147483647,0,0,1,1,2,2,5,5,6,6],"right_children":[2,4,6,-1,-1,8,10,-1,-1,-1,-1],"split_conditions":[5.72E0,5.12E0,1.9E-1,-8.987261E-3,-1.0850127E-3,1.5E-1,2.3E-1,3.869737E-3,1.3925503E-2,-1.3160891E-2,2.5647792E-3],"split_indices":[0,0,4,0,0,4,4,0,0,0,0],"split_type":[0,0,0,0,0,0,0,0,0,0,0],"sum_hessian":[1.23E2,9.1E1,3.2E1,5E0,8.6E1,2.5E1,7E0,1.9E1,6E0,2E0,5E0],"tree_param":{"num_deleted":"0","num_feature":"5","num_nodes":"11","size_leaf_vector":"1"}},{"base_weights":[5.877749E-4,-6.509235E-2,4.136571E-2,-4.3026593E-2,-1.3558111E-2,1.3320345E-1,1.1969452E-2,-3.084624E-3,8.955552E-3,3.3397952E-3,1.420472E-2,3.3384603E-3,-3.5533912E-3],"categories":[],"categories_nodes":[],"categories_segments":[],"categories_sizes":[],"default_left":[0,0,0,0,0,0,0,0,0,0,0,0,0],"id":53,"left_children":[1,3,5,7,-1,9,11,-1,-1,-1,-1,-1,-1],"loss_changes":[3.321163E-1,2.1015309E-1,2.057288E-1,1.8589312E-1,0E0,1.7588738E-1,2.685723E-1,0E0,0E0,0E0,0E0,0E0,0E0],"parents":[2147483647,0,0,1,1,2,2,3,3,5,5,6,6],"right_children":[2,4,6,8,-1,10,12,-1,-1,-1,-1,-1,-1],"split_conditions":[5.2E0,7E-2,1E-1,5.16E0,-1.3558111E-2,5.9E-1,5.6E-1,-3.084624E-3,8.955552E-3,3.3397952E-3,1.420472E-2,3.3384603E-3,-3.5533912E-3],"split_indices":[0,4,4,0,0,3,3,0,0,0,0,0,0],"split_type":[0,0,0,0,0,0,0,0,0,0,0,0,0],"sum_hessian":[1.23E2,4.7E1,7.6E1,4.3E1,4E0,1.8E1,5.8E1,4E1,3E0,1.3E1,5E0,3.5E1,2.3E1],"tree_param":{"num_deleted":"0","num_feature":"5","num_nodes":"13","size_leaf_vector":"1"}},{"base_weights":[5.974223E-4,-2.8905448E-2,8.365016E-2,-3.6971446E-2,1.3281916E-2,-8.946999E-3,1.1338712E-1,5.012637E-3,-2.6467985E-3,9.988832E-3,-6.0468516E-4],"categories":[],"categories_nodes":[],"categories_segments":[],"categories_sizes":[],"default_left":[0,0,0,0,0,0,0,0,0,0,0],"id":54,"left_children":[1,3,5,7,-1,-1,9,-1,-1,-1,-1],"loss_changes":[3.0382028E-1,2.2229522E-1,2.6392537E-1,1.9872284E-1,0E0,0E0,3.2099476E-1,0E0,0E0,0E0,0E0],"parents":[2147483647,0,0,1,1,2,2,3,3,6,6],"right_children":[2,4,6,8,-1,-1,10,-1,-1,-1,-1],"split_conditions":[5.72E0,7E-1,3.1E-1,1E-1,1.3281916E-2,-8.946999E-3,6.3E-1,5.012637E-3,-2.6467985E-3,9.988832E-3,-6.0468516E-4],"split_indices":[0,3,3,3,0,0,3,0,0,0,0],"split_type":[0,0,0,0,0,0,0,0,0,0,0],"sum_hessian":[1.23E2,9.1E1,3.2E1,8.9E1,2E0,3E0,2.9E1,9E0,8E1,1.7E1,1.2E1],"tree_param":{"num_deleted":"0","num_feature":"5","num_nodes":"11","size_leaf_vector":"1"}},{"base_weights":[6.326736E-4,-6.0589723E-2,3.8642447E-2,-3.9600037E-2,-1.2837893E-2,1.24912046E-1,1.1030329E-2,-2.8677834E-3,8.575757E-3,3.8930892E-3,1.5771644E-2,-2.5470129E-3,2.594888E-3],"categories":[],"categories_nodes":[],"categories_segments":[],"categories_sizes":[],"default_left":[0,0,0,0,0,0,0,0,0,0,0,0,0],"id":55,"left_children":[1,3,5,7,-1,9,11,-1,-1,-1,-1,-1,-1],"loss_changes":[2.8856125E-1,1.9049785E-1,1.815407E-1,1.679777E-1,0E0,1.5355495E-1,1.4947768E-1,0E0,0E0,0E0,0E0,0E0,0E0],"parents":[2147483647,0,0,1,1,2,2,3,3,5,5,6,6],"right_children":[2,4,6,8,-1,10,12,-1,-1,-1,-1,-1,-1],"split_conditions":[5.2E0,7E-2,1E-1,5.16E0,-1.2837893E-2,9E-2,5.65E0,-2.8677834E-3,8.575757E-3,3.8930892E-3,1.5771644E-2,-2.5470129E-3,2.594888E-3],"split_indices":[0,4,4,0,0,4,1,0,0,0,0,0,0],"split_type":[0,0,0,0,0,0,0,0,0,0,0,0,0],"sum_hessian":[1.23E2,4.7E1,7.6E1,4.3E1,4E0,1.8E1,5.8E1,4E1,3E0,1.5E1,3E0,2.3E1,3.5E1],"tree_param":{"num_deleted":"0","num_feature":"5","num_nodes":"13","size_leaf_vector":"1"}},{"base_weights":[6.519784E-4,-3.2343436E-2,5.2009255E-2,-1.472305E-2,-9.556004E-3,-8.55752E-2,8.8856846E-2,-1.2890326E-3,1.4117688E-2,1.31865265E-2,-1.2143976E-2,1.0888901E-2,5.371578E-4],"categories":[],"categories_nodes":[],"categories_segments":[],"categories_sizes":[],"default_left":[0,0,0,0,0,0,0,0,0,0,0,0,0],"id":56,"left_children":[1,3,5,7,-1,9,11,-1,-1,-1,-1,-1,-1],"loss_changes":[2.1011858E-1,2.0981985E-1,2.4968025E-1,2.286592E-1,0E0,6.08974E-1,3.8654473E-1,0E0,0E0,0E0,0E0,0E0,0E0],"parents":[2147483647,0,0,1,1,2,2,3,3,5,5,6,6],"right_children":[2,4,6,8,-1,10,12,-1,-1,-1,-1,-1,-1],"split_conditions":[5.63E0,5.5E0,2.1E-1,3.6E-1,-9.556004E-3,5.68E0,2.8E-1,-1.2890326E-3,1.4117688E-2,1.31865265E-2,-1.2143976E-2,1.0888901E-2,5.371578E-4],"split_indices":[1,1,2,2,0,1,2,0,0,0,0,0,0],"split_type":[0,0,0,0,0,0,0,0,0,0,0,0,0],"sum_hessian":[1.23E2,7.5E1,4.8E1,6.8E1,7E0,1E1,3.8E1,6.6E1,2E0,3E0,7E0,1.4E1,2.4E1],"tree_param":{"num_deleted":"0","num_feature":"5","num_nodes":"13","size_leaf_vector":"1"}},{"base_weights":[6.8310776E-4,-5.66842E-2,3.6298867E-2,-3.6634408E-2,-1.2210031E-2,7.712941E-2,-1.726167E-2,-2.6815303E-3,8.263469E-3,7.983524E-3,1.058294E-3,-2.1726552E-3,1.5810136E-2],"categories":[],"categories_nodes":[],"categories_segments":[],"categories_sizes":[],"default_left":[0,0,0,0,0,0,0,0,0,0,0,0,0],"id":57,"left_children":[1,3,5,7,-1,9,11,-1,-1,-1,-1,-1,-1],"loss_changes":[2.5336152E-1,1.7411102E-1,1.6796398E-1,1.5370621E-1,0E0,1.9924933E-1,2.9945597E-1,0E0,0E0,0E0,0E0,0E0,0E0],"parents":[2147483647,0,0,1,1,2,2,3,3,5,5,6,6],"right_children":[2,4,6,8,-1,10,12,-1,-1,-1,-1,-1,-1],"split_conditions":[5.2E0,7E-2,1.8E-1,5.16E0,-1.2210031E-2,4E-1,7.8E-1,-2.6815303E-3,8.263469E-3,7.983524E-3,1.058294E-3,-2.1726552E-3,1.5810136E-2],"split_indices":[0,4,4,0,0,3,3,0,0,0,0,0,0],"split_type":[0,0,0,0,0,0,0,0,0,0,0,0,0],"sum_hessian":[1.23E2,4.7E1,7.6E1,4.3E1,4E0,4.3E1,3.3E1,4E1,3E0,1.7E1,2.6E1,3.1E1,2E0],"tree_param":{"num_deleted":"0","num_feature":"5","num_nodes":"13","size_leaf_vector":"1"}},{"base_weights":[7.1394147E-4,-2.5146877E-2,7.351111E-2,-3.6503084E-2,1.3279763E-2,1.5379758E-1,-3.1458225E-2,-1.2776064E-3,-1.4940226E-2,-1.7155871E-4,1.6948722E-2,-1.0794324E-2,3.848586E-3],"categories":[],"categories_nodes":[],"categories_segments":[],"categories_sizes":[],"default_left":[0,0,0,0,0,0,0,0,0,0,0,0,0],"id":58,"left_children":[1,3,5,7,-1,9,11,-1,-1,-1,-1,-1,-1],"loss_changes":[2.3342472E-1,3.0695555E-1,2.7631667E-1,2.5039437E-1,0E0,5.3921145E-1,2.9827297E-1,0E0,0E0,0E0,0E0,0E0,0E0],"parents":[2147483647,0,0,1,1,2,2,3,3,5,5,6,6],"right_children":[2,4,6,8,-1,10,12,-1,-1,-1,-1,-1,-1],"split_conditions":[5.72E0,3.5E-1,3.1E-1,5.69E0,1.3279763E-2,2.6E-1,5.85E0,-1.2776064E-3,-1.4940226E-2,-1.7155871E-4,1.6948722E-2,-1.0794324E-2,3.848586E-3],"split_indices":[0,2,2,0,0,2,0,0,0,0,0,0,0],"split_type":[0,0,0,0,0,0,0,0,0,0,0,0,0],"sum_hessian":[1.23E2,9.1E1,3.2E1,8.8E1,3E0,1.8E1,1.4E1,8.5E1,3E0,1E1,8E0,5E0,9E0],"tree_param":{"num_deleted":"0","num_feature":"5","num_nodes":"13","size_leaf_vector":"1"}},{"base_weights":[7.0615724E-4,-9.855742E-3,8.236029E-3,8.924383E-3,-8.436696E-2,-1.1703974E-3,8.619206E-3,-7.6185213E-3,1.193408E-3],"categories":[],"categories_nodes":[],"categories_segments":[],"categories_sizes":[],"default_left":[0,0,0,0,0,0,0,0,0],"id":59,"left_children":[1,3,-1,5,7,-1,-1,-1,-1],"loss_changes":[2.1475121E-1,1.6339841E-1,0E0,4.9616826E-1,1.7478696E-1,0E0,0E0,0E0,0E0],"parents":[2147483647,0,0,1,1,3,3,4,4],"right_children":[2,4,-1,6,8,-1,-1,-1,-1],"split_conditions":[7.8E-1,3.1E-1,8.236029E-3,2.7E-1,3.6E-1,-1.1703974E-3,8.619206E-3,-7.6185213E-3,1.193408E-3],"split_indices":[3,2,0,2,2,0,0,0,0],"split_type":[0,0,0,0,0,0,0,0,0],"sum_hessian":[1.23E2,1.16E2,7E0,9.3E1,2.3E1,7.8E1,1.5E1,1.4E1,9E0],"tree_param":{"num_deleted":"0","num_feature":"5","num_nodes":"9","size_leaf_vector":"1"}},{"base_weights":[7.083385E-4,-2.6746359E-2,4.974866E-2,-1.1417723E-2,-1.1688883E-1,1.8610309E-1,7.52849E-3,-1.0677268E-3,1.2759252E-2,-2.647493E-3,-1.6823959E-2,-5.2919844E-3,1.3051069E-2,-1.0914309E-2,2.9449002E-3],"categories":[],"categories_nodes":[],"categories_segments":[],"categories_sizes":[],"default_left":[0,0,0,0,0,0,0,0,0,0,0,0,0,0,0],"id":60,"left_children":[1,3,5,7,9,11,13,-1,-1,-1,-1,-1,-1,-1,-1],"loss_changes":[1.6694413E-1,1.09182715E-1,2.5548184E-1,1.8419364E-1,1.5255609E-1,2.4346766E-1,4.0662792E-1,0E0,0E0,0E0,0E0,0E0,0E0,0E0,0E0],"parents":[2147483647,0,0,1,1,2,2,3,3,4,4,5,5,6,6],"right_children":[2,4,6,8,10,12,14,-1,-1,-1,-1,-1,-1,-1,-1],"split_conditions":[5.65E0,5.5E0,5.7E0,3.6E-1,1.9E-1,8E-2,2.1E-1,-1.0677268E-3,1.2759252E-2,-2.647493E-3,-1.6823959E-2,-5.2919844E-3,1.3051069E-2,-1.0914309E-2,2.9449002E-3],"split_indices":[1,1,1,2,4,4,2,0,0,0,0,0,0,0,0],"split_type":[0,0,0,0,0,0,0,0,0,0,0,0,0,0,0],"sum_hessian":[1.23E2,7.9E1,4.4E1,6.8E1,1.1E1,1E1,3.4E1,6.6E1,2E0,9E0,2E0,2E0,8E0,6E0,2.8E1],"tree_param":{"num_deleted":"0","num_feature":"5","num_nodes":"15","size_leaf_vector":"1"}},{"base_weights":[6.4056617E-4,-5.1641256E-2,3.3098947E-2,-1.74527E-2,-1.5790749E-1,1.092919E-1,8.720841E-3,-2.1662114E-3,1.7153243E-2,-1.39042605E-2,-2.203596E-3,-7.104757E-4,1.0203244E-2,2.3739368E-3,-2.3017288E-3],"categories":[],"categories_nodes":[],"categories_segments":[],"categories_sizes":[],"default_left":[0,0,0,0,0,0,0,0,0,0,0,0,0,0,0],"id":61,"left_children":[1,3,5,7,9,11,13,-1,-1,-1,-1,-1,-1,-1,-1],"loss_changes":[2.1043207E-1,1.7119375E-1,1.4161761E-1,3.4787205E-1,1.5119782E-1,2.1798484E-1,1.2524182E-1,0E0,0E0,0E0,0E0,0E0,0E0,0E0,0E0],"parents":[2147483647,0,0,1,1,2,2,3,3,4,4,5,5,6,6],"right_children":[2,4,6,8,10,12,14,-1,-1,-1,-1,-1,-1,-1,-1],"split_conditions":[5.2E0,5.15E0,1E-1,2E-2,5.16E0,2.6E-1,2.8E-1,-2.1662114E-3,1.7153243E-2,-1.39042605E-2,-2.203596E-3,-7.104757E-4,1.0203244E-2,2.3739368E-3,-2.3017288E-3],"split_indices":[0,0,4,4,0,2,2,0,0,0,0,0,0,0,0],"split_type":[0,0,0,0,0,0,0,0,0,0,0,0,0,0,0],"sum_hessian":[1.23E2,4.7E1,7.6E1,3.6E1,1.1E1,1.8E1,5.8E1,3.4E1,2E0,5E0,6E0,8E0,1E1,3.4E1,2.4E1],"tree_param":{"num_deleted":"0","num_feature":"5","num_nodes":"15","size_leaf_vector":"1"}},{"base_weights":[6.427266E-4,-9.149919E-3,7.6356158E-3,8.991719E-3,-8.11358E-2,-1.0487142E-3,8.023249E-3,-7.2566527E-3,1.0407257E-3],"categories":[],"categories_nodes":[],"categories_segments":[],"categories_sizes":[],"default_left":[0,0,0,0,0,0,0,0,0],"id":62,"left_children":[1,3,-1,5,7,-1,-1,-1,-1],"loss_changes":[1.8461035E-1,1.52507E-1,0E0,4.260838E-1,1.548371E-1,0E0,0E0,0E0,0E0],"parents":[2147483647,0,0,1,1,3,3,4,4],"right_children":[2,4,-1,6,8,-1,-1,-1,-1],"split_conditions":[7.8E-1,3.1E-1,7.6356158E-3,2.7E-1,3.6E-1,-1.0487142E-3,8.023249E-3,-7.2566527E-3,1.0407257E-3],"split_indices":[3,2,0,2,2,0,0,0,0],"split_type":[0,0,0,0,0,0,0,0,0],"sum_hessian":[1.23E2,1.16E2,7E0,9.3E1,2.3E1,7.8E1,1.5E1,1.4E1,9E0],"tree_param":{"num_deleted":"0","num_feature":"5","num_nodes":"9","size_leaf_vector":"1"}},{"base_weights":[6.445834E-4,-8.6891595E-3,7.2792876E-3,8.5794395E-3,-7.721126E-2,-9.966119E-4,7.6350267E-3,-5.210738E-3,8.523054E-3],"categories":[],"categories_nodes":[],"categories_segments":[],"categories_sizes":[],"default_left":[0,0,0,0,0,0,0,0,0],"id":63,"left_children":[1,3,-1,5,7,-1,-1,-1,-1],"loss_changes":[1.677087E-1,1.3818341E-1,0E0,3.8572583E-1,1.6605076E-1,0E0,0E0,0E0,0E0],"parents":[2147483647,0,0,1,1,3,3,4,4],"right_children":[2,4,-1,6,8,-1,-1,-1,-1],"split_conditions":[7.8E-1,3.1E-1,7.2792876E-3,2.7E-1,5.78E0,-9.966119E-4,7.6350267E-3,-5.210738E-3,8.523054E-3],"split_indices":[3,2,0,2,1,0,0,0,0],"split_type":[0,0,0,0,0,0,0,0,0],"sum_hessian":[1.23E2,1.16E2,7E0,9.3E1,2.3E1,7.8E1,1.5E1,2.1E1,2E0],"tree_param":{"num_deleted":"0","num_feature":"5","num_nodes":"9","size_leaf_vector":"1"}},{"base_weights":[6.82108E-4,-4.8054464E-2,3.093892E-2,-2.8684836E-2,-1.1497741E-2,1.0124582E-1,8.440679E-3,-2.2188192E-3,7.849331E-3,-5.807909E-4,9.389439E-3,2.2294575E-3,-2.1317266E-3],"categories":[],"categories_nodes":[],"categories_segments":[],"categories_sizes":[],"default_left":[0,0,0,0,0,0,0,0,0,0,0,0,0],"id":64,"left_children":[1,3,5,7,-1,9,11,-1,-1,-1,-1,-1,-1],"loss_changes":[1.8285811E-1,1.6406062E-1,1.20579004E-1,1.302193E-1,0E0,1.8178715E-1,1.0895853E-1,0E0,0E0,0E0,0E0,0E0,0E0],"parents":[2147483647,0,0,1,1,2,2,3,3,5,5,6,6],"right_children":[2,4,6,8,-1,10,12,-1,-1,-1,-1,-1,-1],"split_conditions":[5.2E0,7E-2,1E-1,5.16E0,-1.1497741E-2,2.6E-1,2.8E-1,-2.2188192E-3,7.849331E-3,-5.807909E-4,9.389439E-3,2.2294575E-3,-2.1317266E-3],"split_indices":[0,4,4,0,0,2,2,0,0,0,0,0,0],"split_type":[0,0,0,0,0,0,0,0,0,0,0,0,0],"sum_hessian":[1.23E2,4.7E1,7.6E1,4.3E1,4E0,1.8E1,5.8E1,4E1,3E0,8E0,1E1,3.4E1,2.4E1],"tree_param":{"num_deleted":"0","num_feature":"5","num_nodes":"13","size_leaf_vector":"1"}},{"base_weights":[6.6031015E-4,-4.5713488E-2,2.9450184E-2,-1.2568E-2,-1.4892684E-1,1.041973E-2,2.0728678E-2,-1.8704579E-3,1.6637681E-2,-1.2974753E-2,-2.1956612E-3,-1.4340123E-3,3.0670941E-3],"categories":[],"categories_nodes":[],"categories_segments":[],"categories_sizes":[],"default_left":[0,0,0,0,0,0,0,0,0,0,0,0,0],"id":65,"left_children":[1,3,5,7,9,-1,11,-1,-1,-1,-1,-1,-1],"loss_changes":[1.6555746E-1,1.6156435E-1,1.17230974E-1,3.193279E-1,1.278308E-1,0E0,1.4836876E-1,0E0,0E0,0E0,0E0,0E0,0E0],"parents":[2147483647,0,0,1,1,2,2,3,3,4,4,6,6],"right_children":[2,4,6,8,10,-1,12,-1,-1,-1,-1,-1,-1],"split_conditions":[5.2E0,5.15E0,5.25E0,2E-2,5.16E0,1.041973E-2,2.6E-1,-1.8704579E-3,1.6637681E-2,-1.2974753E-2,-2.1956612E-3,-1.4340123E-3,3.0670941E-3],"split_indices":[0,0,0,4,0,0,2,0,0,0,0,0,0],"split_type":[0,0,0,0,0,0,0,0,0,0,0,0,0],"sum_hessian":[1.23E2,4.7E1,7.6E1,3.6E1,1.1E1,3E0,7.3E1,3.4E1,2E0,5E0,6E0,3.3E1,4E1],"tree_param":{"num_deleted":"0","num_feature":"5","num_nodes":"13","size_leaf_vector":"1"}},{"base_weights":[6.7445973E-4,-7.867222E-3,6.665514E-3,1.0476758E-1,-1.7784404E-2,-5.886445E-3,1.8253345E-2,-1.6419275E-2,-2.0970473E-4],"categories":[],"categories_nodes":[],"categories_segments":[],"categories_sizes":[],"default_left":[0,0,0,0,0,0,0,0,0],"id":66,"left_children":[1,3,-1,5,7,-1,-1,-1,-1],"loss_changes":[1.4044161E-1,1.3106441E-1,0E0,5.716884E-1,4.5308653E-1,0E0,0E0,0E0,0E0],"parents":[2147483647,0,0,1,1,3,3,4,4],"right_children":[2,4,-1,6,8,-1,-1,-1,-1],"split_conditions":[7.8E-1,1E-1,6.665514E-3,7E-2,1.2E-1,-5.886445E-3,1.8253345E-2,-1.6419275E-2,-2.0970473E-4],"split_indices":[3,3,0,3,3,0,0,0,0],"split_type":[0,0,0,0,0,0,0,0,0],"sum_hessian":[1.23E2,1.16E2,7E0,9E0,1.07E2,5E0,4E0,4E0,1.03E2],"tree_param":{"num_deleted":"0","num_feature":"5","num_nodes":"9","size_leaf_vector":"1"}},{"base_weights":[6.5046264E-4,-4.2428095E-2,2.7394334E-2,-1.0805028E-2,-1.4095226E-1,1.2099179E-2,2.0009497E-2,3.4361791E-3,-4.502081E-3,-1.288925E-2,-1.5625646E-3,-1.2046616E-3,2.866573E-3],"categories":[],"categories_nodes":[],"categories_segments":[],"categories_sizes":[],"default_left":[0,0,0,0,0,0,0,0,0,0,0,0,0],"id":67,"left_children":[1,3,5,7,9,-1,11,-1,-1,-1,-1,-1,-1],"loss_changes":[1.4286394E-1,1.4723122E-1,1.1880906E-1,2.331015E-1,1.4336358E-1,0E0,1.2331769E-1,0E0,0E0,0E0,0E0,0E0,0E0],"parents":[2147483647,0,0,1,1,2,2,3,3,4,4,6,6],"right_children":[2,4,6,8,10,-1,12,-1,-1,-1,-1,-1,-1],"split_conditions":[5.2E0,5.15E0,1.4E-1,2.3E-1,2.1E-1,1.2099179E-2,2.6E-1,3.4361791E-3,-4.502081E-3,-1.288925E-2,-1.5625646E-3,-1.2046616E-3,2.866573E-3],"split_indices":[0,0,3,3,3,0,2,0,0,0,0,0,0],"split_type":[0,0,0,0,0,0,0,0,0,0,0,0,0],"sum_hessian":[1.23E2,4.7E1,7.6E1,3.6E1,1.1E1,2E0,7.4E1,1.8E1,1.8E1,5E0,6E0,3.4E1,4E1],"tree_param":{"num_deleted":"0","num_feature":"5","num_nodes":"13","size_leaf_vector":"1"}},{"base_weights":[6.1082497E-4,-5.8249068E-3,1.7144738E-1,9.944979E-2,-1.4849315E-2,1.5375273E-2,5.4991542E-5,-5.557339E-3,1.7289782E-2,-1.5842248E-2,-1.0096109E-4],"categories":[],"categories_nodes":[],"categories_segments":[],"categories_sizes":[],"default_left":[0,0,0,0,0,0,0,0,0,0,0],"id":68,"left_children":[1,3,5,7,9,-1,-1,-1,-1,-1,-1],"loss_changes":[1.3628243E-1,1.1426839E-1,1.0412812E-1,5.120731E-1,4.2782697E-1,0E0,0E0,0E0,0E0,0E0,0E0],"parents":[2147483647,0,0,1,1,2,2,3,3,4,4],"right_children":[2,4,6,8,10,-1,-1,-1,-1,-1,-1],"split_conditions":[6.02E0,1E-1,6.1E0,5.14E0,1.2E-1,1.5375273E-2,5.4991542E-5,-5.557339E-3,1.7289782E-2,-1.5842248E-2,-1.0096109E-4],"split_indices":[0,3,0,1,3,0,0,0,0,0,0],"split_type":[0,0,0,0,0,0,0,0,0,0,0],"sum_hessian":[1.23E2,1.19E2,4E0,9E0,1.1E2,2E0,2E0,5E0,4E0,4E0,1.06E2],"tree_param":{"num_deleted":"0","num_feature":"5","num_nodes":"11","size_leaf_vector":"1"}},{"base_weights":[6.257114E-4,-7.513485E-3,6.3506425E-3,-1.9743647E-3,-9.303294E-3,-6.217478E-4,7.334883E-3],"categories":[],"categories_nodes":[],"categories_segments":[],"categories_sizes":[],"default_left":[0,0,0,0,0,0,0],"id":69,"left_children":[1,3,-1,5,-1,-1,-1],"loss_changes":[1.2752032E-1,1.15037516E-1,0E0,1.7742698E-1,0E0,0E0,0E0],"parents":[2147483647,0,0,1,1,3,3],"right_children":[2,4,-1,6,-1,-1,-1],"split_conditions":[5.95E0,5.92E0,6.3506425E-3,5.78E0,-9.303294E-3,-6.217478E-4,7.334883E-3],"split_indices":[0,0,0,1,0,0,0],"split_type":[0,0,0,0,0,0,0],"sum_hessian":[1.23E2,1.16E2,7E0,1.13E2,3E0,1.06E2,7E0],"tree_param":{"num_deleted":"0","num_feature":"5","num_nodes":"7","size_leaf_vector":"1"}},{"base_weights":[6.096449E-4,-7.2917975E-3,6.165237E-3,1.0484186E-2,-7.7862374E-2,-7.5084524E-4,6.9648335E-3,-6.822359E-3,7.827282E-4],"categories":[],"categories_nodes":[],"categories_segments":[],"categories_sizes":[],"default_left":[0,0,0,0,0,0,0,0,0],"id":70,"left_children":[1,3,-1,5,7,-1,-1,-1,-1],"loss_changes":[1.2017888E-1,1.465529E-1,0E0,3.081802E-1,1.2981682E-1,0E0,0E0,0E0,0E0],"parents":[2147483647,0,0,1,1,3,3,4,4],"right_children":[2,4,-1,6,8,-1,-1,-1,-1],"split_conditions":[7.8E-1,3.1E-1,6.165237E-3,2.7E-1,3.6E-1,-7.5084524E-4,6.9648335E-3,-6.822359E-3,7.827282E-4],"split_indices":[3,2,0,2,2,0,0,0,0],"split_type":[0,0,0,0,0,0,0,0,0],"sum_hessian":[1.23E2,1.16E2,7E0,9.3E1,2.3E1,7.8E1,1.5E1,1.4E1,9E0],"tree_param":{"num_deleted":"0","num_feature":"5","num_nodes":"9","size_leaf_vector":"1"}},{"base_weights":[6.0482207E-4,-6.9264653E-3,5.877525E-3,9.6395135E-2,-1.6024996E-2,-5.3709485E-3,1.6739536E-2,-1.5077144E-2,-1.7668797E-4],"categories":[],"categories_nodes":[],"categories_segments":[],"categories_sizes":[],"default_left":[0,0,0,0,0,0,0,0,0],"id":71,"left_children":[1,3,-1,5,7,-1,-1,-1,-1],"loss_changes":[1.0917991E-1,1.10291064E-1,0E0,4.79571E-1,3.8286287E-1,0E0,0E0,0E0,0E0],"parents":[2147483647,0,0,1,1,3,3,4,4],"right_children":[2,4,-1,6,8,-1,-1,-1,-1],"split_conditions":[7.8E-1,1E-1,5.877525E-3,7E-2,1.2E-1,-5.3709485E-3,1.6739536E-2,-1.5077144E-2,-1.7668797E-4],"split_indices":[3,3,0,3,3,0,0,0,0],"split_type":[0,0,0,0,0,0,0,0,0],"sum_hessian":[1.23E2,1.16E2,7E0,9E0,1.07E2,5E0,4E0,4E0,1.03E2],"tree_param":{"num_deleted":"0","num_feature":"5","num_nodes":"9","size_leaf_vector":"1"}},{"base_weights":[5.826409E-4],"categories":[],"categories_nodes":[],"categories_segments":[],"categories_sizes":[],"default_left":[0],"id":72,"left_children":[-1],"loss_changes":[0E0],"parents":[2147483647],"right_children":[-1],"split_conditions":[2.9132045E-5],"split_indices":[0],"split_type":[0],"sum_hessian":[1.23E2],"tree_param":{"num_deleted":"0","num_feature":"5","num_nodes":"1","size_leaf_vector":"1"}},{"base_weights":[5.536178E-4,-7.0460313E-3,7.117597E-3,6.477937E-5,7.723228E-3],"categories":[],"categories_nodes":[],"categories_segments":[],"categories_sizes":[],"default_left":[0,0,0,0,0],"id":73,"left_children":[1,-1,3,-1,-1],"loss_changes":[1.1518782E-1,0E0,1.015558E-1,0E0,0E0],"parents":[2147483647,0,0,2,2],"right_children":[2,-1,4,-1,-1],"split_conditions":[5.12E0,-7.0460313E-3,6.02E0,6.477937E-5,7.723228E-3],"split_indices":[0,0,0,0,0],"split_type":[0,0,0,0,0],"sum_hessian":[1.23E2,5E0,1.18E2,1.14E2,4E0],"tree_param":{"num_deleted":"0","num_feature":"5","num_nodes":"5","size_leaf_vector":"1"}},{"base_weights":[5.289358E-4],"categories":[],"categories_nodes":[],"categories_segments":[],"categories_sizes":[],"default_left":[0],"id":74,"left_children":[-1],"loss_changes":[0E0],"parents":[2147483647],"right_children":[-1],"split_conditions":[2.644679E-5],"split_indices":[0],"split_type":[0],"sum_hessian":[1.23E2],"tree_param":{"num_deleted":"0","num_feature":"5","num_nodes":"1","size_leaf_vector":"1"}},{"base_weights":[5.0258933E-4,-3.7099466E-2,2.3846986E-2,-1.8616088E-2,-1.0582498E-2,7.3075876E-2,-5.327177E-3,-1.6657896E-3,7.706997E-3,-4.08201E-4,1.0636652E-2,-1.2728713E-3,1.2856354E-2],"categories":[],"categories_nodes":[],"categories_segments":[],"categories_sizes":[],"default_left":[0,0,0,0,0,0,0,0,0,0,0,0,0],"id":75,"left_children":[1,3,5,7,-1,9,11,-1,-1,-1,-1,-1,-1],"loss_changes":[1.0885033E-1,1.512784E-1,1.10064834E-1,1.1303427E-1,0E0,3.242218E-1,2.5951147E-1,0E0,0E0,0E0,0E0,0E0,0E0],"parents":[2147483647,0,0,1,1,2,2,3,3,5,5,6,6],"right_children":[2,4,6,8,-1,10,12,-1,-1,-1,-1,-1,-1],"split_conditions":[5.2E0,7E-2,4E-1,5.16E0,-1.0582498E-2,3.1E-1,6.02E0,-1.6657896E-3,7.706997E-3,-4.08201E-4,1.0636652E-2,-1.2728713E-3,1.2856354E-2],"split_indices":[0,4,3,0,0,3,0,0,0,0,0,0,0],"split_type":[0,0,0,0,0,0,0,0,0,0,0,0,0],"sum_hessian":[1.23E2,4.7E1,7.6E1,4.3E1,4E0,2.8E1,4.8E1,4E1,3E0,1.8E1,1E1,4.5E1,3E0],"tree_param":{"num_deleted":"0","num_feature":"5","num_nodes":"13","size_leaf_vector":"1"}},{"base_weights":[5.4737605E-4,-6.6512427E-3,3.3723106E-4],"categories":[],"categories_nodes":[],"categories_segments":[],"categories_sizes":[],"default_left":[0,0,0],"id":76,"left_children":[1,-1,-1],"loss_changes":[1.02679424E-1,0E0,0E0],"parents":[2147483647,0,0],"right_children":[2,-1,-1],"split_conditions":[5.12E0,-6.6512427E-3,3.3723106E-4],"split_indices":[0,0,0],"split_type":[0,0,0],"sum_hessian":[1.23E2,5E0,1.18E2],"tree_param":{"num_deleted":"0","num_feature":"5","num_nodes":"3","size_leaf_vector":"1"}},{"base_weights":[4.944373E-4],"categories":[],"categories_nodes":[],"categories_segments":[],"categories_sizes":[],"default_left":[0],"id":77,"left_children":[-1],"loss_changes":[0E0],"parents":[2147483647],"right_children":[-1],"split_conditions":[2.4721865E-5],"split_indices":[0],"split_type":[0],"sum_hessian":[1.23E2],"tree_param":{"num_deleted":"0","num_feature":"5","num_nodes":"1","size_leaf_vector":"1"}},{"base_weights":[4.698071E-4],"categories":[],"categories_nodes":[],"categories_segments":[],"categories_sizes":[],"default_left":[0],"id":78,"left_children":[-1],"loss_changes":[0E0],"parents":[2147483647],"right_children":[-1],"split_conditions":[2.3490355E-5],"split_indices":[0],"split_type":[0],"sum_hessian":[1.23E2],"tree_param":{"num_deleted":"0","num_feature":"5","num_nodes":"1","size_leaf_vector":"1"}},{"base_weights":[4.4641623E-4],"categories":[],"categories_nodes":[],"categories_segments":[],"categories_sizes":[],"default_left":[0],"id":79,"left_children":[-1],"loss_changes":[0E0],"parents":[2147483647],"right_children":[-1],"split_conditions":[2.2320812E-5],"split_indices":[0],"split_type":[0],"sum_hessian":[1.23E2],"tree_param":{"num_deleted":"0","num_feature":"5","num_nodes":"1","size_leaf_vector":"1"}},{"base_weights":[4.2419907E-4],"categories":[],"categories_nodes":[],"categories_segments":[],"categories_sizes":[],"default_left":[0],"id":80,"left_children":[-1],"loss_changes":[0E0],"parents":[2147483647],"right_children":[-1],"split_conditions":[2.1209953E-5],"split_indices":[0],"split_type":[0],"sum_hessian":[1.23E2],"tree_param":{"num_deleted":"0","num_feature":"5","num_nodes":"1","size_leaf_vector":"1"}},{"base_weights":[4.0306972E-4],"categories":[],"categories_nodes":[],"categories_segments":[],"categories_sizes":[],"default_left":[0],"id":81,"left_children":[-1],"loss_changes":[0E0],"parents":[2147483647],"right_children":[-1],"split_conditions":[2.0153486E-5],"split_indices":[0],"split_type":[0],"sum_hessian":[1.23E2],"tree_param":{"num_deleted":"0","num_feature":"5","num_nodes":"1","size_leaf_vector":"1"}},{"base_weights":[3.8300306E-4],"categories":[],"categories_nodes":[],"categories_segments":[],"categories_sizes":[],"default_left":[0],"id":82,"left_children":[-1],"loss_changes":[0E0],"parents":[2147483647],"right_children":[-1],"split_conditions":[1.9150153E-5],"split_indices":[0],"split_type":[0],"sum_hessian":[1.23E2],"tree_param":{"num_deleted":"0","num_feature":"5","num_nodes":"1","size_leaf_vector":"1"}},{"base_weights":[3.6393674E-4],"categories":[],"categories_nodes":[],"categories_segments":[],"categories_sizes":[],"default_left":[0],"id":83,"left_children":[-1],"loss_changes":[0E0],"parents":[2147483647],"right_children":[-1],"split_conditions":[1.8196837E-5],"split_indices":[0],"split_type":[0],"sum_hessian":[1.23E2],"tree_param":{"num_deleted":"0","num_feature":"5","num_nodes":"1","size_leaf_vector":"1"}},{"base_weights":[3.4582018E-4],"categories":[],"categories_nodes":[],"categories_segments":[],"categories_sizes":[],"default_left":[0],"id":84,"left_children":[-1],"loss_changes":[0E0],"parents":[2147483647],"right_children":[-1],"split_conditions":[1.729101E-5],"split_indices":[0],"split_type":[0],"sum_hessian":[1.23E2],"tree_param":{"num_deleted":"0","num_feature":"5","num_nodes":"1","size_leaf_vector":"1"}},{"base_weights":[3.2860317E-4],"categories":[],"categories_nodes":[],"categories_segments":[],"categories_sizes":[],"default_left":[0],"id":85,"left_children":[-1],"loss_changes":[0E0],"parents":[2147483647],"right_children":[-1],"split_conditions":[1.6430158E-5],"split_indices":[0],"split_type":[0],"sum_hessian":[1.23E2],"tree_param":{"num_deleted":"0","num_feature":"5","num_nodes":"1","size_leaf_vector":"1"}},{"base_weights":[3.122308E-4],"categories":[],"categories_nodes":[],"categories_segments":[],"categories_sizes":[],"default_left":[0],"id":86,"left_children":[-1],"loss_changes":[0E0],"parents":[2147483647],"right_children":[-1],"split_conditions":[1.561154E-5],"split_indices":[0],"split_type":[0],"sum_hessian":[1.23E2],"tree_param":{"num_deleted":"0","num_feature":"5","num_nodes":"1","size_leaf_vector":"1"}},{"base_weights":[2.96679E-4],"categories":[],"categories_nodes":[],"categories_segments":[],"categories_sizes":[],"default_left":[0],"id":87,"left_children":[-1],"loss_changes":[0E0],"parents":[2147483647],"right_children":[-1],"split_conditions":[1.483395E-5],"split_indices":[0],"split_type":[0],"sum_hessian":[1.23E2],"tree_param":{"num_deleted":"0","num_feature":"5","num_nodes":"1","size_leaf_vector":"1"}},{"base_weights":[2.8190133E-4],"categories":[],"categories_nodes":[],"categories_segments":[],"categories_sizes":[],"default_left":[0],"id":88,"left_children":[-1],"loss_changes":[0E0],"parents":[2147483647],"right_children":[-1],"split_conditions":[1.4095067E-5],"split_indices":[0],"split_type":[0],"sum_hessian":[1.23E2],"tree_param":{"num_deleted":"0","num_feature":"5","num_nodes":"1","size_leaf_vector":"1"}},{"base_weights":[2.6787634E-4],"categories":[],"categories_nodes":[],"categories_segments":[],"categories_sizes":[],"default_left":[0],"id":89,"left_children":[-1],"loss_changes":[0E0],"parents":[2147483647],"right_children":[-1],"split_conditions":[1.3393817E-5],"split_indices":[0],"split_type":[0],"sum_hessian":[1.23E2],"tree_param":{"num_deleted":"0","num_feature":"5","num_nodes":"1","size_leaf_vector":"1"}},{"base_weights":[2.545298E-4],"categories":[],"categories_nodes":[],"categories_segments":[],"categories_sizes":[],"default_left":[0],"id":90,"left_children":[-1],"loss_changes":[0E0],"parents":[2147483647],"right_children":[-1],"split_conditions":[1.2726489E-5],"split_indices":[0],"split_type":[0],"sum_hessian":[1.23E2],"tree_param":{"num_deleted":"0","num_feature":"5","num_nodes":"1","size_leaf_vector":"1"}},{"base_weights":[2.4184192E-4],"categories":[],"categories_nodes":[],"categories_segments":[],"categories_sizes":[],"default_left":[0],"id":91,"left_children":[-1],"loss_changes":[0E0],"parents":[2147483647],"right_children":[-1],"split_conditions":[1.2092096E-5],"split_indices":[0],"split_type":[0],"sum_hessian":[1.23E2],"tree_param":{"num_deleted":"0","num_feature":"5","num_nodes":"1","size_leaf_vector":"1"}},{"base_weights":[2.2979447E-4],"categories":[],"categories_nodes":[],"categories_segments":[],"categories_sizes":[],"default_left":[0],"id":92,"left_children":[-1],"loss_changes":[0E0],"parents":[2147483647],"right_children":[-1],"split_conditions":[1.1489724E-5],"split_indices":[0],"split_type":[0],"sum_hessian":[1.23E2],"tree_param":{"num_deleted":"0","num_feature":"5","num_nodes":"1","size_leaf_vector":"1"}},{"base_weights":[2.1834346E-4],"categories":[],"categories_nodes":[],"categories_segments":[],"categories_sizes":[],"default_left":[0],"id":93,"left_children":[-1],"loss_changes":[0E0],"parents":[2147483647],"right_children":[-1],"split_conditions":[1.0917173E-5],"split_indices":[0],"split_type":[0],"sum_hessian":[1.23E2],"tree_param":{"num_deleted":"0","num_feature":"5","num_nodes":"1","size_leaf_vector":"1"}},{"base_weights":[2.0747526E-4],"categories":[],"categories_nodes":[],"categories_segments":[],"categories_sizes":[],"default_left":[0],"id":94,"left_children":[-1],"loss_changes":[0E0],"parents":[2147483647],"right_children":[-1],"split_conditions":[1.0373763E-5],"split_indices":[0],"split_type":[0],"sum_hessian":[1.23E2],"tree_param":{"num_deleted":"0","num_feature":"5","num_nodes":"1","size_leaf_vector":"1"}},{"base_weights":[1.9714556E-4],"categories":[],"categories_nodes":[],"categories_segments":[],"categories_sizes":[],"default_left":[0],"id":95,"left_children":[-1],"loss_changes":[0E0],"parents":[2147483647],"right_children":[-1],"split_conditions":[9.857278E-6],"split_indices":[0],"split_type":[0],"sum_hessian":[1.23E2],"tree_param":{"num_deleted":"0","num_feature":"5","num_nodes":"1","size_leaf_vector":"1"}},{"base_weights":[1.8733703E-4],"categories":[],"categories_nodes":[],"categories_segments":[],"categories_sizes":[],"default_left":[0],"id":96,"left_children":[-1],"loss_changes":[0E0],"parents":[2147483647],"right_children":[-1],"split_conditions":[9.366852E-6],"split_indices":[0],"split_type":[0],"sum_hessian":[1.23E2],"tree_param":{"num_deleted":"0","num_feature":"5","num_nodes":"1","size_leaf_vector":"1"}},{"base_weights":[1.78013E-4],"categories":[],"categories_nodes":[],"categories_segments":[],"categories_sizes":[],"default_left":[0],"id":97,"left_children":[-1],"loss_changes":[0E0],"parents":[2147483647],"right_children":[-1],"split_conditions":[8.90065E-6],"split_indices":[0],"split_type":[0],"sum_hessian":[1.23E2],"tree_param":{"num_deleted":"0","num_feature":"5","num_nodes":"1","size_leaf_vector":"1"}},{"base_weights":[1.6915626E-4],"categories":[],"categories_nodes":[],"categories_segments":[],"categories_sizes":[],"default_left":[0],"id":98,"left_children":[-1],"loss_changes":[0E0],"parents":[2147483647],"right_children":[-1],"split_conditions":[8.457813E-6],"split_indices":[0],"split_type":[0],"sum_hessian":[1.23E2],"tree_param":{"num_deleted":"0","num_feature":"5","num_nodes":"1","size_leaf_vector":"1"}},{"base_weights":[1.6072835E-4],"categories":[],"categories_nodes":[],"categories_segments":[],"categories_sizes":[],"default_left":[0],"id":99,"left_children":[-1],"loss_changes":[0E0],"parents":[2147483647],"right_children":[-1],"split_conditions":[8.036418E-6],"split_indices":[0],"split_type":[0],"sum_hessian":[1.23E2],"tree_param":{"num_deleted":"0","num_feature":"5","num_nodes":"1","size_leaf_vector":"1"}}]},"name":"gbtree"},"learner_model_param":{"base_score":"[-1.6260162E-2]","boost_from_average":"1","num_class":"0","num_feature":"5","num_target":"1"},"objective":{"name":"reg:squarederror","reg_loss_param":{"scale_pos_weight":"1"}}},"version":[3,2,0]}